0.0167912878,0.0284435097,-0.0080948118,0.0211541541,-0.0183952432,0.0297223795,0.0116770184,-0.0127248541,0.0018125140,-0.0285747387,-0.0258250106,-0.0290536415,-0.0260348357,-0.0024569891,0.0182222389,-0.0126940189,0.0114222653,-0.0111191925,-0.0179431234,0.0077828560,-0.0105760647,0.0176842697,-0.0010231115,0.0088561736,0.0055894507,0.0027359936,0.0139766810,-0.0250647776,0.0027386139,-0.0072991312,-0.0139982225,0.0199599285,-0.0023645591,0.0063013639,0.0221563317,-0.0230179764,0.0169696696,-0.0184732825,0.0179986060,-0.0204117317,-0.0197531879,0.0030098374,-0.0297328606,0.0137094846,-0.0026624773,-0.0168924406,0.0040227985,0.0015134214,0.0167737305,0.0186483450,-0.0040269718,-0.0275247321,-0.0191008579,0.0125740105,0.0009755619,0.0313086510,-0.0212608781,0.0170007553,0.0153743438,-0.0002877060,0.0300589297,-0.0103267599,0.0032570558,-0.0305370521,0.0200853702,0.0037136571,0.0168027021,0.0149914175,0.0136794280,-0.0283358935,0.0257504284,0.0210552104,-0.0304724202,0.0251886025,0.0026383691,0.0089454083,-0.0212216452,0.0070921569,-0.0040079639,0.0193129666,-0.0209370162,-0.0241866354,0.0280895978,-0.0292656105,0.0187593549,-0.0200201906,-0.0025281045,-0.0147032188,-0.0145574519,0.0232447386,0.0231124312,-0.0056606550,-0.0103555880,0.0240122993,0.0321333297,-0.0159489345,-0.0097060911,-0.0180209987,0.0000155720,0.0166795161,0.0025281974,-0.0252501648,-0.0105744693,-0.0061434098,0.0023425834,-0.0262590852,-0.0069165705,0.0305672828,0.0206089895,0.0159777142,0.0258481428,0.0105493106,-0.0175685119,0.0227597486,-0.0293390714,-0.0051741861,-0.0314667970,-0.0132463276,-0.0250814762,-0.0053687585,0.0083977226,-0.0111330803,-0.0026224863,0.0244276151,-0.0208787061,-0.0073571173,0.0051525971,-0.0170011893,-0.0205276757,-0.0152754169,-0.0011215765,0.0223194882,-0.0217456203,0.0063631861,0.0235820115,-0.0304701533,0.0240744688,-0.0160207395,0.0138571933,-0.0207737945,-0.0047873356,-0.0264308620,-0.0245121755,-0.0071516922,0.0116612548,0.0117258821,-0.0036625969,-0.0173748899,-0.0028946667,0.0163575709,-0.0146316821,0.0161521360,-0.0093907388,0.0205664597,-0.0130340792,-0.0212977193,-0.0126937525,0.0105313137,0.0305439532,0.0189362392,0.0249785054,0.0289797615,0.0128180562,0.0193513185,-0.0141444942,-0.0029244220,0.0172581989,0.0052521769,-0.0055220244,0.0090685710,0.0192217138,-0.0169139020,0.0035412028,-0.0294926688,-0.0181964431,-0.0239100270,0.0078096408,0.0225759111,0.0300101638,-0.0217296667,0.0031786892,0.0171487741,-0.0176604223,-0.0108543113,0.0290339123,-0.0055090217,0.0158301033,0.0191640984,-0.0199105162,-0.0018206133,-0.0220233351,-0.0291416794,-0.0290793907,0.0093946084,0.0224354062,0.0287246872,-0.0086822603,-0.0176918544,0.0125427051,0.0261674244,0.0256632064,-0.0190353896,0.0263477061,-0.0150787756,-0.0121022761,0.0029934992,0.0298359934,0.0027733736,-0.0115221003,0.0224126633,-0.0056582801,0.0253688172,-0.0092884107,0.0054776953,0.0031996758,0.0137948422,0.0246450510,0.0280423239,-0.0054728379,-0.0272751134,0.0020366381,0.0304740909,-0.0245024245,-0.0111371772,-0.0013125277,0.0279098004,-0.0177787542,0.0174355339,-0.0210259687,0.0270646922,-0.0152855581,0.0156095847,0.0298310071,-0.0171944015,0.0196046811,0.0123583758,0.0252272226,-0.0258004237,0.0115834223,-0.0013368665,-0.0135522541,-0.0062222867,0.0258458667,0.0202927962,0.0014584437,0.0290438384,-0.0018955043,0.0243574902,-0.0280741975,-0.0168142542,0.0242853612,-0.0216186121,0.0301952846,-0.0089701591,-0.0078930799,-0.0135880774
