-0.0136809433,0.0132825123,0.0191578753,-0.0104492083,0.0197358523,0.0283129811,0.0175641738,0.0128071727,0.0188894942,-0.0135038784,0.0167537108,0.0013039910,0.0243968479,-0.0095596863,-0.0222212877,-0.0132414196,-0.0176153202,-0.0179705527,0.0258332007,0.0261367764,-0.0191287752,-0.0278563946,0.0041735782,-0.0020213199,-0.0022435826,0.0073389271,0.0185701810,0.0199866593,0.0191141721,0.0201460030,-0.0076569575,-0.0002441090,-0.0259087272,0.0293942112,0.0280949455,0.0202662498,-0.0046355515,0.0261765905,0.0002623525,-0.0209294409,-0.0007064302,0.0022079737,0.0303158313,-0.0236722548,0.0265681539,-0.0017829740,0.0165033787,0.0198611338,0.0296139028,-0.0070577064,-0.0245327875,-0.0069560795,-0.0044168509,-0.0089236023,-0.0200317111,0.0196899977,0.0147014447,-0.0158886053,-0.0194208659,0.0238718819,0.0074616973,-0.0254129767,0.0055058221,0.0297902618,0.0286305062,0.0126676280,-0.0220278502,-0.0248672534,-0.0318667330,-0.0203687754,-0.0117001301,0.0154671399,0.0023965286,-0.0266602617,-0.0290320404,-0.0085082185,-0.0003182560,-0.0110013541,-0.0005600997,0.0066545918,-0.0024489528,0.0320112184,-0.0024098333,0.0263879076,-0.0047367127,0.0240399446,-0.0224189963,-0.0205454938,-0.0292910580,0.0267033353,-0.0176658016,0.0004136896,0.0188544560,0.0140818600,-0.0153013282,-0.0243156813,-0.0292770192,0.0139309568,-0.0200762413,-0.0143404957,0.0243652109,0.0028990023,0.0252526626,-0.0098172780,0.0076045431,-0.0132690063,0.0018229086,-0.0060949950,-0.0236501228,-0.0294679347,0.0185236745,-0.0068359468,0.0170416813,-0.0069475053,0.0197194908,-0.0207616668,-0.0283043403,-0.0231897458,0.0098262709,0.0097063323,-0.0025177752,0.0191662256,0.0023482854,0.0231576450,0.0045799855,0.0008921407,0.0247529056,0.0112112341,-0.0216506086,-0.0170663819,-0.0025930535,0.0293808803,-0.0107220793,0.0235875603,0.0224284325,0.0148116043,-0.0226904768,0.0026917099,-0.0260758717,-0.0164240394,0.0154256094,-0.0178645849,0.0269332360,0.0014584165,0.0105056893,0.0133805731,0.0206513349,-0.0156669877,-0.0291379765,-0.0256342813,-0.0084810210,-0.0094039431,-0.0285835657,-0.0262933243,-0.0143574206,0.0276185032,-0.0224525500,0.0126955528,-0.0178810917,-0.0257880259,-0.0281966142,-0.0134167345,0.0107902130,0.0045411540,0.0023503394,0.0117051061,-0.0143470550,-0.0128313685,0.0135728968,0.0182872713,0.0124521824,0.0131393019,0.0221340246,-0.0253717955,-0.0050784610,-0.0148285935,-0.0283303373,0.0110390261,0.0067592501,0.0062732487,0.0313856229,0.0297568403,-0.0076535335,0.0063200332,-0.0068036919,-0.0266301297,0.0206230134,0.0108088432,0.0186350718,0.0174954385,-0.0314230919,-0.0252178852,-0.0152274873,0.0275055915,0.0129295951,0.0024577545,0.0224884357,0.0239226818,0.0296766572,-0.0188518967,0.0194426030,0.0072351550,0.0220069233,0.0101476787,-0.0067172912,-0.0074705095,0.0045590475,0.0236261692,-0.0199311227,0.0086462861,-0.0149296420,0.0089791780,-0.0266239736,0.0200498234,-0.0019840805,0.0157836117,-0.0023868787,0.0129999015,-0.0200923197,-0.0040771994,0.0091157351,-0.0042841290,0.0294270460,-0.0014669244,0.0030578270,0.0005732808,-0.0062809149,0.0003117108,-0.0297131166,-0.0282964502,-0.0195727926,-0.0086768912,-0.0235430989,-0.0130989747,-0.0221134666,0.0094601158,-0.0263419207,-0.0013735446,-0.0236121472,0.0183515213,-0.0025681718,0.0235720649,0.0196292046,0.0067352518,-0.0128329014,0.0210728478,-0.0092567569,-0.0002854549,-0.0182384308,-0.0194520522,-0.0021051564,0.0014184515,-0.0030085468,0.0001269392,0.0124502787,0.0256227888,-0.0073173065,-0.0198431164,-0.0163945649,-0.0141423903,-0.0232038926,-0.0172265097,-0.0134914424,0.0094466610,0.0155557729,-0.0097158784,-0.0279545318,-0.0242143590,-0.0025718797,-0.0243829414,0.0209134258,-0.0051270956,-0.0148928631,0.0174808875,0.0013406794,0.0300475638,0.0026647954,-0.0144088520,-0.0017918015,-0.0002282126,-0.0182634480,-0.0027034625,0.0040124715,0.0210542064,0.0247524586,0.0218686406,0.0155718392,0.0241959970,0.0144010009,0.0170942638,0.0278741959,0.0317458808,-0.0158086792,-0.0096987737,0.0087704780,-0.0044306885,0.0154248858,-0.0140898619,-0.0273435973,-0.0109170526,-0.0211733412,-0.0020377084,0.0318162777,-0.0276651233,-0.0216945540,0.0211298298,0.0298030227,0.0140698776,0.0188661572,0.0261143818,0.0186190009,-0.0261438955,0.0029988782,-0.0261562634,-0.0082377642,-0.0123238936,-0.0003288447,-0.0073599126,-0.0096588889,0.0013303458,-0.0103960121,0.0290698987,0.0091981739,0.0099515943,-0.0055441945,-0.0093193008,-0.0039054472,-0.0142618632,-0.0285575278,0.0162266660,-0.0030950615,0.0223360751,0.0271535497,0.0029113411,0.0094440971,-0.0090495758,0.0271529835,0.0239335671,-0.0175613742,-0.0213858113,0.0284872223,-0.0105790654,-0.0158100966,0.0066804956,-0.0058967979,0.0004602804,0.0140658822,-0.0227684956,-0.0284822863,-0.0048698117,0.0186578389,-0.0264502391,-0.0236590207,0.0245072469,-0.0177052394,0.0105386702,-0.0067456695,-0.0088327322,0.0258441214,-0.0270449203,-0.0020013365,0.0234298762,0.0130102159,0.0058571766,0.0038427822,0.0294729639,0.0110005224,0.0249668658,0.0022912771,-0.0108775143,0.0215776283,-0.0222227853,-0.0057296278,0.0108114593,-0.0095675262,-0.0296223722,0.0016627711,0.0078694113,0.0231004823,0.0006094768,0.0134963132,-0.0238106903,0.0130808679,-0.0031390630,0.0075001465,0.0000134169,-0.0306941438,0.0070977234,-0.0172834117,-0.0223893188,-0.0133781750,0.0171809029,0.0133661581,0.0043501486,0.0132613908,0.0194813721,-0.0055745305,0.0144459289,-0.0190055929,-0.0139288176,0.0160374120,-0.0195994005,0.0174767096,-0.0075810989,-0.0142014688,-0.0167806819,0.0193762593,0.0169841275,-0.0085023819,0.0059704208,-0.0274393689,0.0001882808,-0.0067542368,0.0269217566,0.0239604302,0.0231043119,0.0310709104,0.0254953075,0.0133403586,0.0163499806,0.0116674900,-0.0193058383,-0.0096781049,-0.0105065694,-0.0099247266,-0.0195551552,0.0058241365,0.0055452250,-0.0161755979,0.0311504323,0.0128453067,-0.0120798983,-0.0008144116,0.0146551514,-0.0104687707,0.0118149193,0.0242512878,0.0266910698,-0.0244768579,0.0292815156,-0.0093304263,0.0072578629,0.0190790594,-0.0260673612,0.0022253199,-0.0303990301,0.0203448180,-0.0156997982,-0.0053353528,-0.0256335624,-0.0185754113,0.0071413703,0.0175574254,-0.0047537447,0.0303725768,-0.0300390981,-0.0293418728,0.0170635041,-0.0184153039,-0.0023788973,-0.0077002370,0.0257489830,0.0213949010,0.0148012983,-0.0128054209,0.0098286299,0.0040242276,0.0207531527,-0.0313007273,-0.0173381139,-0.0242751744,-0.0083851740,0.0128086610,-0.0059657348,0.0143340053,-0.0084643736,-0.0049628438,-0.0297687370,0.0071835024,0.0089523718,-0.0228037219,0.0240294077,-0.0028102323,0.0085159605,-0.0209165495,0.0056675966,0.0052462337,-0.0205498114,0.0283930581,0.0019126316,0.0231256224,0.0331423283,-0.0084542930,-0.0174227450,-0.0221034382,-0.0083567109,0.0108233541,0.0080666300,0.0124071995,0.0169858485,0.0039259573,-0.0288916752,0.0141562382,-0.0134910317,-0.0134789180,-0.0103933476,0.0108828675,-0.0018276360,0.0255246051,-0.0114921369,-0.0070922179,-0.0307670608,0.0186310858,-0.0145454742,-0.0161417164,0.0004675713,0.0090064276,0.0188434310,0.0051077441,0.0301629640,0.0191147812,0.0185943972,-0.0079407999,-0.0269520544,0.0049653817,-0.0145221092,-0.0178088751,0.0052878135,-0.0221445896,-0.0249055028,0.0185659081,0.0290184878,-0.0252821054,-0.0166804716,0.0002815735,-0.0006673308,-0.0024518697,0.0056577059,0.0152932480,-0.0083413906,-0.0248914268,0.0287278313,-0.0004726412,-0.0246680826,0.0011058261,-0.0059086792,-0.0045730579,0.0104296030,-0.0170584954,-0.0029532888,-0.0154779134,-0.0184085593,-0.0129757430,-0.0315141305,0.0297070406,0.0007484596,-0.0228413269,-0.0107308161,0.0131370518,0.0027008622,-0.0227158125,0.0237203687,0.0059679295,-0.0268158093,0.0170044843,-0.0243647657,-0.0287738629,-0.0254195035,-0.0127399676,0.0197239015,0.0027607579,0.0063615395,0.0005511717,-0.0076208883,0.0205973461,-0.0105228322,0.0273817088,0.0123906024,0.0301766563,-0.0075670644,0.0165585987,0.0135274911,-0.0115011418,-0.0101047419,-0.0275085159,-0.0198757853,-0.0058388631,0.0188422482,0.0088803703,0.0305931550,0.0257914420,0.0284088235,-0.0125085320,-0.0228972323,0.0257484615,0.0044734753,-0.0254374817,0.0277826712,0.0001279082,-0.0202689264,0.0214669835,-0.0268332325,-0.0286617558,-0.0075575570,-0.0060768612,-0.0080191093,-0.0178514868,0.0085723996,0.0247838274,0.0192012675,0.0146273049,-0.0110406466,0.0189375579,0.0238111429,-0.0283756014,-0.0056884163,-0.0084189810,0.0130400620,0.0096626943,0.0065485863,-0.0239485316,0.0106801642,-0.0163198300,-0.0040605813,0.0092557427,-0.0183139723,0.0094881440,-0.0139139099,0.0313028097,0.0009358369,-0.0117838224,0.0164121315,-0.0033449298,0.0246662889,0.0236607213,0.0329878032,-0.0181459263,0.0026966052,-0.0284466930,0.0292322617,0.0230077561,0.0220262725,-0.0115727196,-0.0099799493,-0.0053194389,0.0207860991,-0.0145908110,-0.0030943064,-0.0103863012,-0.0059565664,0.0114693791,0.0106153060,-0.0131462039,-0.0091170110,-0.0267261583,-0.0113707185,0.0150276804,-0.0288022235,-0.0338943079,0.0265751146,-0.0130638573,-0.0083135562,0.0318162329,0.0217148997,0.0128917936,-0.0258771479,0.0019684101,0.0204385910,-0.0266432911,0.0215572510,0.0300368592,0.0153412372,-0.0105497977,0.0022460020,-0.0233348962,-0.0127978148,-0.0051017157,0.0064592795,-0.0247134008,-0.0250567887,-0.0086905407,-0.0117371036,0.0004067695,-0.0282024480,0.0078628697,0.0096858758,0.0155689381,0.0030674322,-0.0236141998,0.0107797598,-0.0121535873,-0.0231003147,-0.0051381057,-0.0282414705,-0.0157444887,0.0001511435,0.0130703775,-0.0208648499,0.0243937802,-0.0151618356,0.0111889485,0.0268220305,-0.0050867768,-0.0059168064,0.0008767266,0.0162520409,-0.0016457980,-0.0251244605,-0.0214114022,0.0207836758,-0.0316427350,-0.0125752790,-0.0216968618,0.0143998004,0.0108193122,-0.0090672811,0.0305515192,-0.0069863447,0.0218435358,-0.0045414791,0.0095670428,-0.0111596221,-0.0009860342,0.0239818320,0.0050084847,-0.0057466431,0.0200174134,0.0200486593,0.0292908419,0.0200248398,0.0168604739,0.0279218219,-0.0039983764,-0.0270898249,0.0021150224,0.0027118921,0.0106672710,0.0165477097,0.0262282845,-0.0286406912,0.0149214594,0.0164385587,0.0206104536,0.0099151079,-0.0217877384,0.0239166152,-0.0049900846,-0.0047853980,-0.0194429681,0.0059566572,0.0095395381,-0.0283537805,0.0076922197,-0.0064271409,0.0250316150,-0.0162878241,-0.0208922829,-0.0186535940,-0.0256559793,-0.0171146523,0.0300716199,0.0231373738,-0.0216525551,0.0051879776,-0.0012079864,-0.0133968564,-0.0033885096,0.0103036510,-0.0022234451,-0.0065456731,-0.0028302125,-0.0096352827,0.0109661268,0.0091670444,-0.0253771022,0.0232393201,0.0057402845,0.0166355185,0.0052747368,-0.0255683437,-0.0089358324,-0.0187549759,0.0287736952,0.0275531169,0.0071636327,0.0062833386,-0.0113638369,-0.0040171659,0.0233932324,0.0293361563,0.0092275990,0.0263978727,-0.0189102292,-0.0133663528,-0.0029679877,0.0256459992,-0.0033135973,-0.0167103857,-0.0209352523,-0.0078905225,-0.0015991230,-0.0260975957,-0.0228867363,-0.0220881142,0.0132917315,-0.0272148121,0.0037362140,0.0221787952,0.0226193350,-0.0068229940,0.0012915654,0.0056190775,-0.0120549602,0.0025437314,0.0055924002,-0.0005703652,-0.0015112415,0.0074008033,0.0042418013,0.0235233586,0.0307394639,-0.0079541449,0.0049516121,0.0010529268,-0.0199233387,-0.0247456264,0.0208762400,0.0317329653,0.0078152260,-0.0278630238,0.0044760150,0.0216474179,0.0055564251,0.0098483441,-0.0109837325,-0.0132044451,-0.0317414925,-0.0224022120,0.0083566085,-0.0000833153,-0.0299964845,-0.0253988933,-0.0029795477,0.0264700204,0.0261602588,-0.0285647977,0.0172849037,-0.0205174405,0.0045078383,0.0007852707,0.0243231524,-0.0177034605,-0.0180288367,0.0177207962,-0.0105246045,0.0100171659,0.0048672371,0.0103018144,0.0278304033,0.0211022235,0.0241189357,0.0264460519,-0.0022721619,0.0009920396,0.0079830959,0.0129294135,0.0195428431,0.0124404896,-0.0273069721,0.0161626749,0.0089168930,-0.0101532089,-0.0222029462,0.0291915238,0.0170665681,0.0232025646,0.0266091656,0.0144120958,0.0262926202,0.0272043627,-0.0083594667,0.0163681787,-0.0274641681,-0.0097247129,0.0029103805,0.0074231392,0.0149693778,-0.0057544988,-0.0017531950,-0.0142035782,-0.0145002548,-0.0098145204,-0.0278583020,0.0262641776,0.0309749115,-0.0264505427,-0.0265559647,-0.0060268180,0.0228373166,-0.0138811525,0.0233795661,-0.0214741733,-0.0301620290,0.0058836401,0.0222362727,-0.0062103420,-0.0062726755,-0.0225113537,-0.0335296541,-0.0099556446,0.0060754796,-0.0116337361,0.0156142376,-0.0090004262,0.0182606969,0.0147651508,0.0280232243,-0.0267737452,-0.0242648199,0.0135268634,-0.0088970922,0.0034536335,-0.0193231683,0.0185508244,0.0266015027,-0.0280520283,-0.0109491460,-0.0011661213,0.0316034518,-0.0128870653,-0.0319644660,0.0147579238,0.0296759326,0.0038366904,-0.0197618343,0.0275164079,-0.0233152602,-0.0015171584,0.0228138119,-0.0162903722,-0.0204633810,0.0073001273,-0.0240957737,-0.0038656993,0.0073142643,-0.0148311211,0.0084200678,-0.0013559727,-0.0201430768,0.0136961909,-0.0093871523,0.0220581628,-0.0097364821,-0.0156393703,-0.0122732986,-0.0305102151,0.0108430870,0.0120525798,0.0113020604,-0.0037180954,0.0159203243,0.0105959009,-0.0233429205,-0.0009524304,-0.0094502755,-0.0017390357,-0.0326475017,-0.0181092937,-0.0196239166,0.0153568760,0.0135814054,0.0190736540,0.0170014147,-0.0302538592,0.0136547741,0.0141111324,0.0072829309,-0.0184457246,0.0139274010,0.0023315100,0.0232210681,-0.0273123514,0.0116226003,0.0296031591,-0.0131129716,0.0222542081,-0.0293783117,0.0115404138,0.0116578424,-0.0124745090,0.0189682227,0.0228499956,-0.0143842762,0.0238042418,0.0285626519,0.0116662318,-0.0277435817,0.0037080357,-0.0115865348,-0.0194282513,0.0007302553,0.0117241899,0.0130620524,-0.0212236419,0.0300695207,-0.0107283331,0.0283001736,-0.0017340118,-0.0068998346,-0.0160558075,-0.0139766084,0.0141853448,-0.0125281652,-0.0047156624,-0.0058881422,-0.0049093720,-0.0147134820,-0.0063846400,0.0284060482,0.0269224290,-0.0235083736,0.0166023951,-0.0005711464,-0.0117716854
-0.0087656807,0.0054330523,-0.0141046681,0.0092547368,0.0083528785,0.0078281704,0.0067236098,0.0224720463,0.0002316410,0.0071725277,0.0095459316,-0.0186462607,0.0065793321,0.0241013989,-0.0168713685,-0.0237546284,-0.0028245612,-0.0201872364,-0.0012839958,-0.0009993952,-0.0048024193,-0.0250367019,0.0245206226,0.0308243986,-0.0168181360,-0.0241704546,0.0006001191,0.0293397289,0.0191900395,0.0216953065,0.0111413794,0.0121799447,-0.0069230851,0.0260638837,-0.0135452235,-0.0212028716,0.0144577539,-0.0002509249,0.0071103075,-0.0204544198,-0.0285964496,-0.0179116223,-0.0008773251,0.0089218961,-0.0304070488,-0.0097143557,-0.0114671011,0.0064268517,-0.0286076013,0.0172206331,-0.0209064633,0.0070577543,-0.0182497483,-0.0066622999,0.0004668240,0.0131708654,-0.0263653696,-0.0120057669,0.0185877774,0.0238749553,-0.0270390101,0.0039742091,-0.0220690053,0.0123764509,0.0272804108,-0.0087800436,-0.0177540611,-0.0111706061,-0.0270435754,0.0047605578,-0.0176485963,-0.0026555241,-0.0173821095,-0.0186167676,0.0008144854,0.0197523404,-0.0216195099,-0.0193991754,-0.0146612218,0.0239123218,-0.0030184127,-0.0175334699,0.0010411800,-0.0126763377,-0.0294626597,0.0037831953,-0.0117507633,-0.0047173221,0.0255514570,-0.0014184449,-0.0152113196,-0.0280231684,-0.0123264734,0.0153038697,-0.0168435089,-0.0038408369,0.0009811814,0.0243736617,-0.0197131094,0.0187220275,0.0058642086,0.0029382023,0.0255251490,0.0260774754,0.0298026763,-0.0210262127,0.0308578871,0.0178087428,0.0196123887,-0.0129789505,-0.0208640657,0.0041630510,0.0188498329,-0.0116473222,-0.0104283076,-0.0276095942,0.0251359679,0.0122468937,-0.0171200372,0.0248145107,0.0118990615,0.0253079887,0.0053928662,0.0038898312,0.0307527408,0.0130009493,-0.0308208782,0.0199427456,0.0043456219,0.0041127261,0.0268106498,-0.0244993363,-0.0244527478,-0.0026749240,0.0060135671,0.0088911653,-0.0254242066,-0.0043991627,0.0253661014,-0.0259471852,-0.0157251060,-0.0031656339,-0.0017154561,0.0130514484,-0.0091195470,0.0092650754,-0.0187715963,-0.0134428237,-0.0026626105,0.0237847306,-0.0096856384,-0.0035607193,-0.0005951700,-0.0186078399,-0.0074606044,-0.0313810520,-0.0273234919,0.0184362959,0.0052821659,0.0024429541,0.0127440179,0.0143055366,-0.0262914505,0.0184443090,0.0214933995,-0.0127217863,0.0290826261,-0.0129192797,-0.0105261980,0.0100997007,-0.0084596984,-0.0120932693,-0.0137000987,-0.0123697864,-0.0011257568,-0.0259032678,-0.0224548038,-0.0275965407,-0.0290704295,0.0019835471,0.0224223565,-0.0120592359,-0.0099196285,0.0069281748,0.0193512589,0.0324468799,-0.0216878112,0.0206550602,-0.0263081212,-0.0164500158,0.0074377540,-0.0296236929,0.0042435708,-0.0112273321,0.0061783898,-0.0175359808,-0.0252964403,-0.0084273340,0.0232949406,0.0166748483,0.0264158770,-0.0129629634,-0.0102319857,-0.0069344379,-0.0223836694,-0.0198470932,-0.0099691143,0.0235065445,0.0300233532,-0.0050280881,-0.0150267053,-0.0035214578,-0.0031420996,0.0091676200,0.0277713370,-0.0175760556,-0.0269928072,0.0215793680,0.0117209228,0.0213712323,-0.0205767881,0.0225781333,-0.0193968061,0.0192428641,0.0064169108,-0.0076544248,-0.0077232686,-0.0078134350,0.0198525954,0.0000902021,-0.0119589502,0.0235866867,-0.0319015309,-0.0140025159,-0.0237002019,-0.0025879922,-0.0149897374,0.0291683860,-0.0174944885,-0.0166191179,0.0307745636,-0.0057854299,0.0236760415,0.0243847072,0.0282781664,-0.0070823743,0.0216393284,0.0197054278,0.0080462890,-0.0210645497,-0.0157642923,0.0290361568,-0.0033185044,0.0084511871,0.0075962720,-0.0041580386,-0.0045728525,-0.0032569033,-0.0124609582,0.0074405177,0.0200260244,-0.0052076029,-0.0279310569,-0.0009118197,0.0302441064,-0.0270562619,-0.0116969412,0.0120129567,-0.0070973919,0.0012946627,-0.0221462343,0.0214665476,0.0038059354,-0.0226269998,0.0141509054,-0.0311114378,0.0157088619,0.0189129356,-0.0104664061,0.0044402345,0.0276284609,0.0144771440,0.0212726258,0.0304505061,0.0181950312,-0.0110517712,-0.0192179009,0.0009497274,-0.0263932124,0.0159800109,0.0205065962,-0.0074883760,0.0132616293,0.0060074553,-0.0057567083,0.0252963826,0.0205901358,-0.0133992704,0.0208240487,-0.0126391724,0.0274760183,0.0286285747,0.0038570571,-0.0201035552,-0.0133919846,0.0277385209,-0.0125605119,-0.0165114366,-0.0188974999,-0.0073853945,0.0202763695,-0.0138983987,0.0279522687,-0.0152735664,-0.0031466926,0.0101050045,-0.0047312970,0.0075152968,0.0137162767,0.0041106669,0.0010618577,-0.0013198869,0.0125758732,0.0201792065,-0.0274707004,-0.0238924064,-0.0266479105,-0.0002896874,-0.0148425028,-0.0034401242,-0.0208677109,-0.0078227092,-0.0194308311,0.0287581310,0.0133776665,0.0100326333,-0.0078020217,-0.0040058321,0.0197528768,0.0108599775,0.0016001423,-0.0065416661,0.0080069490,0.0017824571,0.0038984779,0.0151589569,-0.0240767691,-0.0025899827,-0.0209550876,0.0117640430,-0.0297518298,-0.0251875389,-0.0126878638,0.0322877206,-0.0288611241,-0.0049042692,0.0084844343,-0.0252873320,0.0032700174,-0.0266482960,0.0167267527,0.0207484178,0.0006677738,0.0265764669,-0.0244929288,-0.0013833464,0.0101393461,0.0258659944,-0.0233740285,0.0093585942,-0.0060695051,0.0273962803,-0.0275940094,0.0283944868,-0.0111752916,0.0189876053,0.0029980652,0.0109341098,-0.0229307134,-0.0079181222,0.0058288747,0.0212601013,-0.0040160916,-0.0191409998,0.0082240542,0.0095213875,0.0284347609,-0.0308888406,0.0143880313,0.0080934502,-0.0196758173,-0.0122706434,-0.0176131483,-0.0259301364,0.0050386623,-0.0203241576,0.0298179872,-0.0110816788,-0.0191179942,0.0122641949,-0.0040058652,-0.0281810090,-0.0085053267,-0.0193716083,0.0252230447,-0.0018518202,-0.0128403334,-0.0165153947,-0.0107848234,-0.0012468959,-0.0253651012,0.0045546545,-0.0099076629,0.0279189777,-0.0200836565,0.0072453422,-0.0070942002,-0.0286486503,-0.0208994094,0.0287575796,-0.0203148928,0.0103547480,0.0246754047,0.0299422480,0.0312018637,-0.0199998319,-0.0026917481,0.0210439749,0.0104773650,-0.0159525853,-0.0187724754,-0.0043688845,-0.0290247686,-0.0014099303,-0.0171193834,0.0242024530,-0.0044244560,0.0026084504,-0.0076393350,-0.0252006017,0.0166648291,0.0216118526,0.0060059233,0.0155766020,-0.0243363529,-0.0230248831,0.0050848303,-0.0097942613,-0.0281114019,-0.0242205188,0.0071337651,-0.0186296608,-0.0229695644,-0.0126761198,0.0303028934,-0.0032845638,0.0031670900,0.0250513777,-0.0068825665,0.0273437053,0.0147642540,-0.0182907283,-0.0001397243,0.0146722216,0.0241652131,-0.0224355161,0.0025077832,-0.0256766714,0.0292965155,-0.0298220105,0.0196873583,0.0055226744,-0.0060230605,-0.0147860553,0.0154888881,0.0053048758,-0.0240319837,0.0223580506,-0.0013747247,0.0015544957,-0.0077174357,0.0249631647,0.0154728545,-0.0170291234,0.0165417176,-0.0191186070,0.0059794001,-0.0098448908,-0.0274546649,0.0044205193,-0.0095664142,0.0304003358,0.0168785285,0.0109831551,0.0273390282,0.0327619575,0.0163986199,-0.0174418278,0.0193251390,-0.0248842593,0.0298971999,-0.0185197853,-0.0059424201,-0.0112875476,-0.0024377659,0.0062610833,0.0204183031,-0.0156481881,0.0121036954,-0.0220498443,0.0118650645,0.0272680260,-0.0219773818,0.0193986855,0.0281490274,0.0092312898,-0.0147423372,0.0038257551,-0.0201073531,-0.0011434385,0.0238738395,0.0045690266,-0.0050530271,0.0089258645,-0.0195514169,0.0006066500,0.0207159668,0.0125908311,-0.0165545791,0.0098247621,0.0077740722,-0.0048738420,-0.0263831802,-0.0014380255,-0.0077368747,-0.0004248781,0.0218125768,0.0060407245,0.0277119223,0.0104318503,-0.0090260645,0.0096424222,-0.0047227801,0.0015213529,-0.0173531901,0.0043072389,-0.0136462180,-0.0064279996,-0.0093897795,-0.0108442968,0.0027649584,-0.0231659394,0.0227445588,-0.0017138770,-0.0216594264,-0.0292543974,0.0167220887,-0.0137535455,-0.0093018049,-0.0151605876,0.0100289229,0.0221381690,0.0161308367,0.0278355610,0.0243841242,-0.0165866576,0.0291359928,0.0120259589,-0.0062157903,-0.0235114843,0.0002138803,-0.0042516221,0.0037971353,-0.0259394776,-0.0292119198,-0.0201489311,-0.0271921642,-0.0175723992,-0.0078288941,-0.0109303473,0.0061011845,0.0104682893,-0.0224618930,-0.0296034496,-0.0315960497,-0.0132675059,0.0105864722,-0.0200288836,-0.0172064323,0.0080818059,0.0075920275,-0.0136634698,-0.0224660337,-0.0190128665,0.0194830056,0.0003311021,0.0246368013,-0.0206351206,0.0057889456,0.0271577332,0.0116883097,-0.0038858559,0.0263301283,0.0256239381,0.0067588119,0.0068851886,-0.0101823425,-0.0226188824,0.0156698078,-0.0200434532,0.0079440130,-0.0148898428,0.0232426524,0.0165490694,-0.0284496769,-0.0219186582,0.0083283484,0.0055261608,0.0043812729,-0.0012351145,-0.0225679390,0.0268603079,-0.0075163487,0.0037307730,-0.0253950469,-0.0251485556,0.0272018332,0.0087298919,-0.0083417455,0.0253967661,-0.0067070336,0.0254369322,-0.0003199936,-0.0076349415,0.0275233369,-0.0026302044,-0.0109822908,-0.0215800777,0.0061043422,-0.0086300476,-0.0084084887,0.0192780644,-0.0295938160,0.0035025976,-0.0061694495,0.0000374143,0.0242959801,-0.0264987648,0.0178312324,-0.0078897607,0.0011137349,0.0204437375,0.0317853913,-0.0282606408,0.0120841572,-0.0087623298,0.0051492611,-0.0098278522,-0.0265908390,-0.0070596542,-0.0017018615,0.0083872359,0.0226711258,0.0274250749,-0.0179852359,-0.0278966352,-0.0291804373,-0.0025842749,0.0263474490,0.0244005993,0.0031146114,-0.0193265527,-0.0245151445,-0.0226912946,0.0278763287,-0.0147674037,-0.0136081707,0.0133701414,0.0145658841,-0.0238437280,-0.0082941465,-0.0277411286,0.0287824813,0.0124058602,-0.0118876798,0.0262187384,0.0234051086,0.0277415961,-0.0067404211,-0.0300874449,-0.0032019482,0.0273975357,0.0082133813,-0.0161514245,0.0171652120,0.0099515142,-0.0053401962,0.0282916650,0.0159315187,-0.0059519480,0.0012042515,0.0135962125,-0.0265478026,-0.0031996956,-0.0037461934,0.0086338585,0.0306036156,0.0078470586,-0.0039484277,0.0294330865,-0.0011828655,-0.0007771767,0.0130146025,-0.0319186635,0.0136180818,0.0173912793,0.0063056909,0.0252835657,0.0240701940,0.0138802044,0.0287934691,0.0158855468,0.0048247525,0.0098781865,-0.0210148245,0.0275208820,0.0052491766,0.0144407321,-0.0013884483,0.0119748842,-0.0305364542,-0.0136502916,0.0211935882,0.0047105676,-0.0002049571,0.0126472972,0.0155345835,-0.0102262795,-0.0039908169,0.0154432897,0.0169914197,-0.0238697808,-0.0174990445,0.0160291903,0.0227435231,-0.0307016540,0.0018339173,0.0258389059,-0.0127803562,-0.0010088714,-0.0158179551,-0.0214907583,0.0284319967,0.0014442648,-0.0306570809,0.0287799239,0.0136527270,0.0233365167,0.0246286243,-0.0185440611,0.0098887160,-0.0123989852,0.0272795875,0.0186020434,-0.0006790042,0.0019524595,-0.0154027846,0.0229256116,0.0060797441,0.0110279331,0.0037836777,0.0297298338,-0.0085036084,0.0250820797,0.0040047122,-0.0011100621,0.0289394632,-0.0079038814,-0.0012574731,0.0217145681,0.0125245601,-0.0130794942,-0.0258625317,-0.0123288557,-0.0036078210,-0.0141710313,-0.0134395240,-0.0027587342,0.0051198569,0.0316500440,0.0210427325,0.0130642131,-0.0281737093,0.0271048807,-0.0300889034,0.0112960339,-0.0199051835,-0.0259086974,0.0165462736,-0.0167078562,0.0121332798,0.0051557608,0.0097778188,0.0050067143,0.0291619245,-0.0227184650,-0.0272370856,-0.0307710953,0.0070093800,-0.0145496316,0.0290322602,-0.0265317447,0.0193828307,0.0211244859,0.0016725125,-0.0025516651,-0.0288592950,-0.0064016669,0.0015946941,-0.0124165891,0.0172818974,0.0096202902,-0.0249064378,-0.0205778666,0.0233302955,0.0269181635,0.0285454113,-0.0148992008,0.0294277240,0.0205357168,-0.0015357084,0.0040059895,0.0313473158,0.0112866834,-0.0283440370,-0.0128723308,-0.0270108636,0.0062014316,-0.0294606201,-0.0246780105,0.0158518478,0.0284015499,-0.0044617578,-0.0284176860,0.0122198453,-0.0291523132,-0.0111170635,0.0113395760,-0.0188569110,-0.0154266646,-0.0232272614,0.0298132729,0.0206243508,0.0286360104,-0.0075336755,-0.0305049885,0.0162855219,0.0073603457,0.0238977503,0.0060068462,-0.0288067479,0.0018606943,-0.0293992031,-0.0050024837,-0.0290627051,-0.0163372532,0.0244223010,0.0174019765,-0.0174381398,-0.0097148912,-0.0225592330,0.0103123924,0.0121998461,-0.0144151393,0.0307814311,0.0304055829,0.0288153160,-0.0048977681,0.0047482420,0.0216830950,0.0196445342,0.0081562214,0.0058949753,0.0295003485,-0.0190405827,-0.0251820907,-0.0127505381,-0.0082325498,-0.0033963190,0.0174644515,0.0273659807,0.0126082143,-0.0251971483,0.0026619791,0.0053035580,0.0191987306,0.0296366252,0.0146016711,0.0039400514,-0.0254222956,0.0058546248,-0.0166359320,-0.0266586747,0.0239768364,-0.0128547782,0.0258636400,0.0234737881,-0.0176467523,-0.0030782491,-0.0055957879,0.0136085562,-0.0063235336,0.0160322487,-0.0137541266,0.0026439764,0.0029630915,0.0220113005,-0.0233992580,0.0238093883,-0.0121600544,-0.0133115863,0.0093951719,-0.0132789370,0.0018000910,-0.0101629915,0.0229583103,-0.0018064678,-0.0023334436,0.0162005723,0.0081237955,-0.0147772161,0.0012338208,0.0036680650,-0.0206381660,0.0015421101,0.0249349214,0.0164440200,-0.0232130531,-0.0274312291,0.0203646440,0.0035991399,0.0269275270,0.0147671867,0.0239203367,0.0186873078,-0.0041514039,-0.0020810752,-0.0045812703,-0.0303704236,-0.0241355244,-0.0116833597,0.0041011199,-0.0074266829,0.0261263270,0.0276136342,0.0296497755,0.0091044232,-0.0017525629,-0.0247074291,0.0059108371,0.0083516538,0.0233141892,0.0264744945,0.0302421767,0.0151822651,0.0299853552,-0.0004213209,0.0105366409,0.0155714173,-0.0245445613,-0.0091114352,-0.0066557843,0.0151348347,-0.0039494149,0.0222790390,-0.0085631385,0.0154088996,0.0071175280,-0.0221080277,-0.0059758713,0.0325022452,-0.0298167635,-0.0003606890,-0.0176518075,0.0161332507,-0.0136692571,0.0140186325,-0.0203634668,0.0194228683,0.0003418525,-0.0316518694,0.0037257015,-0.0254269894,-0.0249269996,0.0055260919,-0.0204706322,0.0024343547,0.0004432347,0.0167797115,0.0167574752,-0.0084063979,-0.0143736973,-0.0125441151,-0.0256620254,0.0270044059,0.0186113343,0.0240785051,-0.0193138923,-0.0135808578,0.0032017895,0.0260803327,0.0306450147,-0.0274950825,-0.0113933375,-0.0089964438,0.0180405732,-0.0215404872,-0.0167253241,-0.0066257031,0.0074479138,0.0147718647,-0.0297719222,0.0173790008,0.0081353346
0.0322053917,0.0135165108,-0.0109705720,-0.0102517847,-0.0026678424,0.0277667101,0.0288339537,0.0092385476,-0.0097593330,-0.0241993275,-0.0070389770,0.0102256862,-0.0170503072,0.0025307497,-0.0065532397,0.0189062450,0.0236402825,0.0267686192,0.0202479195,0.0035452947,-0.0298088305,0.0235057753,0.0168878976,-0.0024460272,0.0025211470,-0.0061489637,-0.0254316386,0.0057622357,-0.0179707557,0.0203045122,0.0155256083,0.0001535207,0.0267763790,-0.0187809020,-0.0169315133,-0.0181528050,-0.0124401795,0.0259628166,-0.0183347724,-0.0046397173,0.0146815507,0.0066512572,0.0235335771,-0.0130199296,0.0123610077,-0.0258426145,-0.0121449400,0.0102730086,-0.0134702651,0.0310279261,-0.0264106393,-0.0132823428,-0.0296561979,-0.0118008023,0.0153535632,-0.0215157662,-0.0135926241,0.0285761170,-0.0194234569,0.0005005771,0.0193657540,-0.0078624291,-0.0286473390,0.0156294703,0.0057365913,0.0157720577,0.0233480409,-0.0195766483,-0.0133351749,0.0145578329,-0.0034673584,0.0200256947,0.0082278540,0.0250267740,-0.0314545035,-0.0310747027,-0.0127421804,0.0106217731,0.0177483503,-0.0221456196,0.0193897504,0.0200451743,0.0229524150,-0.0106856562,0.0306566432,-0.0111114280,-0.0122683505,-0.0169010032,0.0238545351,-0.0255504157,0.0162285175,0.0050722295,0.0049959640,0.0159524512,-0.0303119328,0.0149472095,0.0135332979,0.0300920494,-0.0281454585,-0.0190047361,-0.0285124984,-0.0026662697,-0.0274218470,-0.0243436377,-0.0069798501,-0.0174424499,-0.0006582445,-0.0198024437,0.0175948013,0.0271384493,-0.0213112216,-0.0125346594,-0.0110855596,0.0157610551,0.0210221205,-0.0164292417,-0.0136854872,0.0263825860,0.0279386435,0.0029340489,0.0089237029,0.0277521759,-0.0305364821,-0.0016819825,-0.0244212411,-0.0287224818,-0.0000934767,-0.0238614045,-0.0131795211,0.0031080022,-0.0059878603,0.0269078389,0.0133562470,-0.0057339505,0.0052776258,0.0107130772,-0.0056874095,-0.0175874326,0.0061796601,-0.0127426349,0.0249876529,0.0012887748,0.0151455076,0.0299367029,0.0100550195,-0.0206602979,-0.0249569789,-0.0087820236,0.0280277133,-0.0076125888,-0.0228885729,0.0065488871,-0.0091173407,0.0102008469,0.0272325762,-0.0121875480,0.0117895175,-0.0101675475,0.0016378784,0.0053912392,-0.0007407654,0.0308874045,-0.0011997340,0.0129225561,-0.0031108994,-0.0091534946,0.0286662541,-0.0274875630,0.0117440876,0.0012912077,0.0159323923,0.0112642609,0.0040685921,-0.0245949849,-0.0053887237,0.0273952596,-0.0186054222,0.0046778698,-0.0131689282,0.0284606144,0.0095569678,-0.0297652036,-0.0090314811,0.0222441517,0.0064540855,0.0301945154,-0.0263640974,0.0293646399,-0.0146786710,-0.0307424795,-0.0302227307,-0.0219764989,-0.0008317854,0.0011669279,-0.0015311314,-0.0037770807,-0.0123124961,0.0240864176,-0.0218821373,0.0188168567,-0.0116676819,-0.0014914407,-0.0064100963,0.0241568796,-0.0234963335,-0.0268157572,-0.0186269060,0.0302699450,0.0187319834,0.0011462929,-0.0016838467,-0.0046735932,-0.0234199706,0.0222037714,0.0164278764,0.0087195802,0.0063324580,-0.0254564025,-0.0135215363,0.0095513640,-0.0150154512,0.0120529812,-0.0029432904,0.0107954871,0.0273523573,-0.0306490343,-0.0281397160,-0.0257825051,0.0119197518,0.0294222645,0.0153496163,0.0222313851,0.0310434941,0.0108143371,0.0230081994,-0.0124979932,-0.0248241238,-0.0130733475,-0.0113117304,0.0010158818,-0.0005125310,0.0203152131,0.0158463772,0.0303450227,0.0033816653,0.0231004562,-0.0085063903,0.0187871680,-0.0148518523,-0.0311817508,0.0221140441,-0.0263752919,-0.0158829037,-0.0293658935,0.0296330471,0.0222696420,0.0199965313,-0.0113387089,0.0137421517,0.0043337159,0.0185663961,-0.0220399871,-0.0117709506,0.0199170448,-0.0040139095,0.0173728131,0.0310433842,-0.0168779902,-0.0155864889,0.0038089280,-0.0305254702,0.0182233322,0.0167446267,0.0012210232,0.0194138009,0.0129100690,0.0184113327,0.0166613087,0.0268707722,0.0073203105,-0.0046356390,0.0091792718,-0.0116414009,0.0292573068,-0.0095831370,0.0252692588,-0.0183160324,-0.0235875957,0.0211501680,-0.0226423163,0.0188669302,0.0296634715,-0.0017693546,0.0266754162,-0.0210110508,0.0192779545,-0.0068646418,0.0039108419,0.0250414163,-0.0257552546,0.0154399881,-0.0195753183,-0.0310111344,0.0257121194,-0.0095856301,0.0220086481,0.0004261499,-0.0149811935,0.0293352120,0.0197890177,-0.0070519149,0.0243998803,-0.0229059365,0.0094312839,0.0108668692,0.0012042081,0.0041231583,0.0233691335,0.0114939976,-0.0304437522,0.0313782170,0.0178243313,0.0260654390,0.0123571763,0.0220230818,0.0200437717,-0.0213437304,-0.0206893086,-0.0063042277,-0.0137408413,0.0050591598,-0.0214155298,-0.0095979683,-0.0124586094,-0.0269846357,0.0063614673,-0.0222847853,-0.0010051066,-0.0116737541,-0.0199357849,-0.0001673136,0.0109484289,0.0291599855,-0.0091222152,-0.0234569088,0.0074715922,-0.0065679578,-0.0122874146,-0.0116628706,0.0018746698,-0.0147884004,0.0118999481,0.0202538352,-0.0243871380,-0.0147262998,-0.0115256179,0.0154850697,0.0129522877,-0.0322491601,-0.0029320510,0.0072106263,-0.0047881454,0.0068503586,0.0162911881,0.0299980808,0.0182793830,-0.0111921141,0.0279626492,0.0274898317,-0.0229112171,-0.0282203443,-0.0026325521,0.0151945939,-0.0252090171,-0.0265216976,0.0058958703,-0.0151983714,-0.0083243679,0.0252728108,0.0141172167,-0.0281691793,0.0216467269,-0.0252922848,0.0166695621,0.0055774236,0.0035057315,-0.0059624515,0.0178725868,0.0000088328,-0.0095150815,-0.0072739841,-0.0234425310,-0.0062200199,0.0130003458,0.0004211795,0.0051027611,-0.0006305231,0.0210804157,-0.0001061026,-0.0301706400,0.0169600863,-0.0184526257,0.0187672935,-0.0303420778,0.0017679794,-0.0032665979,0.0048466302,0.0134526305,-0.0049495478,-0.0095708286,0.0007025172,-0.0311837848,-0.0215548240,0.0077582356,0.0110651692,-0.0090268105,-0.0288052466,0.0165218301,-0.0108685046,-0.0047266362,-0.0045914110,-0.0079645663,0.0287689697,0.0287269875,0.0033386531,-0.0093748653,-0.0268302672,0.0196752455,-0.0259777214,0.0050740242,0.0244837180,0.0078647351,-0.0019010284,-0.0097917747,-0.0284016747,-0.0263972525,-0.0025629294,-0.0264190994,-0.0230638068,0.0241380502,0.0108862063,-0.0223370213,0.0143300202,-0.0275525842,-0.0219954364,0.0170412231,0.0084449770,0.0033255056,0.0245018769,-0.0025390943,0.0102131711,0.0295545030,-0.0148502579,-0.0198901612,-0.0266379416,0.0153307868,-0.0265878066,-0.0213418864,0.0225569792,0.0022995789,0.0294072181,-0.0026675770,-0.0058568409,0.0253469292,-0.0245487578,0.0263853651,-0.0082075754,-0.0232111458,0.0306586456,0.0101830726,-0.0076014330,-0.0121311368,-0.0081890216,-0.0286900401,-0.0026786309,-0.0060993494,0.0020970493,-0.0290716793,0.0024523027,0.0202549510,0.0120089278,-0.0074286954,-0.0049229902,-0.0071499082,-0.0013693270,-0.0149489800,-0.0260507278,0.0286179949,0.0041278102,-0.0111052394,0.0081698773,-0.0167023316,0.0043150336,-0.0213942789,0.0193404201,-0.0058885133,-0.0194252431,0.0281808004,-0.0239822995,0.0141268251,-0.0220883172,0.0125198280,0.0151088201,-0.0034357992,0.0241269581,0.0077367313,-0.0042587756,-0.0282627214,0.0074965889,-0.0270553157,0.0038224540,0.0214684717,-0.0225461014,-0.0133662652,-0.0066540865,0.0049604280,-0.0029975814,0.0152424900,-0.0210231859,-0.0295398515,-0.0067695640,0.0209295619,-0.0016319000,-0.0175725073,0.0021201763,0.0185141042,-0.0082890010,-0.0311230607,0.0129730217,0.0066819284,-0.0191345252,-0.0232120603,0.0200697929,0.0115203252,0.0211974047,-0.0305863544,0.0285989866,-0.0202531349,0.0104291094,0.0015331296,-0.0161507931,-0.0208006520,0.0252504777,-0.0115523078,-0.0175112803,-0.0183623973,0.0265252423,-0.0142556448,0.0274847280,-0.0266223941,-0.0147693595,-0.0158276912,-0.0077859946,-0.0282060932,-0.0142581323,0.0120425280,-0.0103151454,0.0204622429,0.0186455324,0.0057112579,-0.0240839161,0.0013402881,0.0022531867,0.0124772741,-0.0081356307,0.0245975982,0.0110044796,-0.0191380270,0.0117954537,-0.0071691200,-0.0148950676,-0.0287013389,-0.0252569485,0.0288163777,-0.0150404572,-0.0095420517,-0.0162997320,-0.0183603559,0.0009150672,0.0173210986,0.0002521281,0.0061320574,0.0041319150,-0.0259243399,-0.0218657497,-0.0139342984,-0.0125920773,0.0103686331,-0.0165480226,-0.0196790416,-0.0043817991,0.0004647712,-0.0091450885,0.0055057365,0.0192234498,0.0275185984,-0.0286199413,0.0233601388,-0.0231612381,-0.0065625506,0.0118662901,-0.0108621679,0.0057924916,-0.0050950944,0.0076471600,-0.0109581761,-0.0018439462,-0.0162329562,0.0289006345,0.0103517640,0.0213513449,0.0209821127,-0.0069396240,0.0135314157,-0.0227102786,-0.0025129609,0.0125023387,0.0325534381,0.0296634547,0.0014103252,0.0114510264,-0.0313534625,-0.0277896393,0.0018465050,0.0188302640,0.0007771153,0.0293519665,-0.0123744933,-0.0047707609,0.0274560507,-0.0301472563,0.0090163564,-0.0278423727,-0.0106803197,0.0106340405,0.0087166503,-0.0281534884,0.0104773734,-0.0114532514,-0.0043398836,0.0230963212,-0.0007663546,0.0043063024,-0.0280014165,-0.0248002745,0.0034213164,-0.0116725033,0.0303683057,-0.0071930881,0.0228923913,0.0237735938,-0.0220011659,0.0154540148,-0.0054089255,0.0197642483,0.0231064335,-0.0150668761,0.0004600384,0.0102539258,0.0133382529,0.0237516053,-0.0112050576,0.0137839587,0.0071230470,0.0031511900,-0.0219964944,-0.0195431318,-0.0317192040,0.0153490873,0.0002287248,0.0217242148,-0.0090860743,0.0093173208,-0.0274526812,-0.0230763722,0.0097131627,0.0304615777,-0.0116195744,0.0081001045,0.0152434902,-0.0015667842,-0.0123978499,-0.0187999345,0.0242708307,-0.0082513066,0.0273428876,-0.0029625543,-0.0100343656,-0.0198920146,0.0273188259,-0.0216471795,0.0225275811,-0.0203745309,-0.0242043938,0.0118177291,-0.0120618157,0.0141593311,-0.0241663251,0.0121700438,0.0246785656,-0.0004019274,-0.0070793736,0.0044959569,0.0253828447,-0.0134738851,-0.0303682555,-0.0017727709,-0.0175035112,-0.0221682936,-0.0290079638,0.0272603575,0.0210364982,-0.0175648313,0.0193083975,-0.0293717775,0.0060767857,0.0148636606,-0.0044848630,-0.0310286395,-0.0004900406,-0.0255968664,0.0029863184,-0.0251316037,0.0281550437,0.0061965133,0.0171963703,0.0302575361,0.0048197759,0.0272733439,-0.0140124718,0.0171381179,-0.0119896755,-0.0102660721,-0.0130113065,0.0269438494,0.0046787374,-0.0175446961,-0.0176907349,0.0106939357,0.0159035940,-0.0030346469,0.0177946202,-0.0239767116,-0.0109925400,-0.0295947269,0.0022329143,0.0300186351,-0.0238373764,0.0148252845,-0.0173280332,0.0102474354,0.0187519081,-0.0045914068,-0.0149480961,-0.0297741555,-0.0030791918,-0.0119405854,0.0080481842,-0.0179307032,0.0060736700,0.0278273169,-0.0204646364,-0.0232352410,-0.0039812187,-0.0117369480,0.0203030221,-0.0143624572,-0.0090133594,0.0251404531,-0.0082105473,0.0190985333,-0.0038330567,0.0164465215,0.0303847399,-0.0211317949,-0.0320441164,-0.0021465211,0.0073475675,0.0223183818,0.0110367592,-0.0159665626,0.0190977268,0.0292579010,-0.0131310821,0.0124462945,-0.0055241790,0.0058971965,0.0195183437,0.0078088795,0.0010629118,0.0077426466,0.0262111686,0.0225093905,-0.0238021612,0.0203794688,0.0210049767,-0.0252686329,0.0249848180,0.0099787805,-0.0024710656,-0.0180514604,0.0273855515,0.0241034422,-0.0299175680,-0.0006801075,0.0018462605,0.0085064648,-0.0167098120,0.0146126691,-0.0005488893,0.0256522745,-0.0285372939,-0.0271917004,-0.0036928742,-0.0160012394,0.0018343328,0.0306046065,-0.0295065846,0.0162292309,-0.0184547976,-0.0304044969,-0.0280032903,-0.0082965363,-0.0127178738,0.0299784224,0.0157642681,0.0027326609,-0.0111324731,0.0106568476,-0.0200975668,-0.0153478226,-0.0208427012,-0.0046760896,0.0220571235,-0.0302053243,-0.0275904890,0.0249067154,0.0201770030,0.0021265522,-0.0270134490,-0.0035191467,0.0059003322,-0.0259336494,-0.0284669213,-0.0062439297,-0.0111053186,0.0045875367,0.0014673704,-0.0116871847,-0.0035994237,0.0059271120,-0.0042095501,-0.0090846913,0.0286838524,0.0048889578,0.0183379874,0.0049234657,0.0149685880,0.0020095480,0.0259788390,-0.0270859431,-0.0270194728,-0.0155898016,0.0256257337,-0.0062902351,-0.0077019786,0.0035113632,0.0168710984,0.0220256038,0.0266675856,-0.0222701672,-0.0288363826,-0.0252414886,-0.0165919289,-0.0071593006,-0.0272534713,0.0016000344,-0.0011485281,0.0188300330,-0.0094176540,0.0251547080,0.0100962305,-0.0019342124,0.0158692356,-0.0094242664,0.0040400722,0.0203684885,0.0317858309,0.0088839335,0.0152633376,0.0287862346,0.0155347921,0.0141517278,-0.0153640974,0.0277737584,-0.0042362451,-0.0094912220,0.0313889906,0.0130702779,0.0171309039,0.0133720078,-0.0244751666,-0.0147900553,0.0166452564,0.0191326439,-0.0201215521,-0.0070673362,0.0147284884,0.0265104603,0.0192951374,0.0045728274,-0.0248685945,0.0113817323,-0.0286715515,0.0068678269,0.0251713637,-0.0118519096,-0.0231653973,0.0087676374,-0.0050519765,-0.0062199440,0.0208608750,0.0156399608,0.0167562589,0.0221611802,0.0255226493,-0.0168253519,-0.0074224882,-0.0149124982,0.0200513247,0.0278065130,-0.0043315156,-0.0295394585,0.0300860275,0.0056690089,-0.0302416012,-0.0032139479,-0.0195412412,-0.0156176984,0.0190684907,0.0067004208,-0.0046874932,-0.0073957467,0.0002171713,0.0169853885,-0.0118125388,-0.0284872297,-0.0010097667,-0.0214299057,0.0261817947,0.0164250508,0.0241591595,-0.0213928111,-0.0220749676,-0.0203362219,0.0056574335,-0.0138430838,0.0170960370,0.0157616567,-0.0206818748,-0.0104988459,-0.0034316359,-0.0206928514,0.0082387645,0.0116089117,-0.0177558828,0.0188673697,-0.0282945447,0.0251711644,0.0075129848,-0.0160891004,0.0283190068,0.0160304327,0.0123174926,0.0078435661,-0.0138243064,-0.0305405725,-0.0240119547,-0.0242582001,-0.0013550218,0.0205781944,-0.0257328562,-0.0174580328,-0.0013246195,0.0208744723,0.0132260369,0.0250261221,0.0135358116,-0.0178368371,0.0010110682,-0.0262613129,-0.0097012846,-0.0266459286,0.0025898048,-0.0187408663,0.0265757311,0.0072011105,-0.0075465450,0.0305189490,0.0027140437,0.0217343215,-0.0197763909,-0.0180173740,-0.0097535644,0.0017234680,0.0283523034,-0.0209483523,0.0229314286,-0.0135025419,-0.0117158722,0.0293498877,-0.0275048502,-0.0051437328,-0.0292579550,0.0162085295,0.0288714729,-0.0083957668,0.0262035858,-0.0151870633,-0.0146670481,0.0120888967,0.0085389577,0.0178440008,-0.0295180138
-0.0112822317,0.0228422955,0.0233697388,0.0155485999,0.0216804482,-0.0148848416,0.0223443750,0.0043265354,0.0197746009,0.0296833925,0.0024121585,-0.0258549936,0.0145008722,0.0150026819,-0.0061710225,0.0258475337,-0.0291429851,0.0142209269,0.0314779989,0.0240969695,0.0179816131,-0.0069178697,0.0297962911,-0.0005026091,-0.0219556391,-0.0118802469,0.0002172695,0.0206468292,0.0033405339,-0.0187206510,-0.0170686990,-0.0268790685,-0.0265391003,0.0304309782,-0.0048516113,-0.0014097453,0.0181770325,0.0135213761,-0.0093175517,0.0218011085,-0.0277848151,0.0177598018,0.0218297970,0.0309636537,0.0122131333,-0.0306908321,-0.0202788282,0.0133182136,-0.0206291620,-0.0108538913,-0.0040956433,0.0179760680,-0.0059253676,0.0098780794,-0.0030670743,0.0212543663,0.0094728004,0.0181680620,0.0028135022,-0.0197745282,0.0123972371,-0.0048551261,-0.0122930305,0.0289225467,-0.0079998029,-0.0125327287,-0.0194631666,-0.0078455107,-0.0179257374,0.0222445261,-0.0164511856,0.0106900921,-0.0035957827,0.0039218017,0.0269694347,-0.0029370838,0.0202861670,0.0163318627,-0.0206098016,-0.0156917628,-0.0064596799,0.0201320052,0.0186004471,-0.0032250260,-0.0068464912,0.0297874026,0.0212168023,-0.0120671056,-0.0040995716,-0.0204406641,0.0149657736,0.0213449597,-0.0225447286,-0.0205945112,-0.0055034417,0.0289241932,0.0058904937,-0.0128867701,-0.0016019781,0.0047953757,0.0150402999,-0.0110709611,-0.0231897067,0.0232882462,-0.0082495417,0.0259152967,-0.0170089789,-0.0291263908,-0.0236787368,0.0166870896,-0.0211832896,0.0177848414,-0.0297757890,0.0165262800,0.0226838067,-0.0212157909,0.0062857028,-0.0021162294,0.0081495056,0.0111822085,0.0174480174,0.0041401903,0.0034751145,0.0118646706,-0.0154141514,0.0131084267,-0.0251704417,0.0029216313,-0.0197344143,-0.0062995139,-0.0261661261,0.0091592073,0.0045993994,-0.0294341985,0.0220237132,-0.0028836566,-0.0279049855,0.0038085764,-0.0209638793,-0.0275287852,0.0290819183,-0.0099919345,-0.0099011846,-0.0090965219,-0.0147433812,0.0050530131,0.0114881014,0.0001980379,-0.0018230265,0.0159126371,0.0286260098,0.0232827738,-0.0265123248,-0.0157992765,0.0101111690,-0.0110714147,-0.0248270128,0.0178942420,0.0042298613,0.0288587753,-0.0293586329,-0.0136224534,0.0081212679,0.0040137526,0.0264956206,-0.0107816719,0.0100047840,0.0240621362,-0.0175789967,0.0149723366,-0.0113067068,0.0098236455,-0.0120969908,-0.0205532257,-0.0228213482,0.0178228002,0.0324102268,0.0275659431,-0.0297558997,-0.0130335074,-0.0176711883,-0.0097441180,0.0130627705,0.0167107396,-0.0289695300,0.0295191929,-0.0077873860,-0.0088908365,-0.0180501100,0.0054135015,0.0272712503,0.0289099272,-0.0203103572,-0.0003627344,-0.0099855177,0.0213219430,-0.0146751711,0.0297972653,-0.0013495439,0.0278479513,0.0278674737,-0.0174714625,-0.0204052702,0.0117437411,-0.0237000529,-0.0129379490,-0.0247414485,0.0070881052,0.0062965401,0.0273711719,0.0205136873,0.0138919447,0.0005619517,-0.0180624146,-0.0163342059,-0.0238329619,0.0161139853,0.0010861430,-0.0001568532,-0.0216421075,-0.0153990043,0.0296239201,0.0013054234,-0.0126650045,-0.0308138579,0.0024858955,-0.0094133737,0.0186131168,0.0140217450,0.0169636961,-0.0168863293,0.0200302787,-0.0007508996,-0.0003179892,0.0066726166,-0.0221452918,0.0305017605,0.0232790541,-0.0067250184,0.0054424247,0.0292780697,0.0022547666,-0.0070453170,-0.0114066331,0.0317115262,-0.0262488779,0.0207381379,0.0141084129,-0.0091401450,-0.0020956784,-0.0231446978,-0.0314875357,0.0168842524,-0.0215053614,0.0294665638,0.0109728491,0.0270229541,0.0181403346,-0.0221921355,-0.0077652847,0.0023337940,-0.0123468749,0.0173855610,-0.0113315713,-0.0226158835,0.0211586412,0.0180131122,0.0233471841,0.0227553453,-0.0295814518,-0.0063207867,0.0250984393,-0.0075336038,-0.0292236414,-0.0166198034,0.0305194110,0.0250054188,0.0053133052,-0.0296950489,0.0067463149,-0.0019881178,0.0001514087,-0.0043647606,0.0040333793,-0.0070532309,-0.0072081317,-0.0274257977,0.0133010708,0.0315023884,0.0138010997,-0.0135682337,0.0126855224,0.0110589648,-0.0199013725,-0.0199452434,0.0197284929,-0.0089038052,-0.0198379233,0.0293531436,-0.0176657308,0.0132362917,-0.0247406363,-0.0241558086,-0.0247410517,-0.0329308324,0.0079782018,0.0097189704,0.0044270246,0.0232006721,0.0009108505,-0.0152162472,-0.0256835055,0.0282935854,0.0114144487,-0.0248976313,-0.0134815499,0.0281399842,0.0218296964,-0.0308154076,-0.0097617144,-0.0302455444,-0.0026317083,-0.0051162848,-0.0272992197,-0.0027006790,0.0300132353,0.0007898141,0.0221664179,0.0062801251,0.0252325106,-0.0256357789,-0.0269576032,-0.0260678343,-0.0072841812,-0.0211103559,0.0066426918,-0.0222457275,0.0107739419,0.0201832205,-0.0141547658,-0.0284181498,-0.0003383947,-0.0208570864,0.0241058785,-0.0245561525,0.0043706698,0.0263693016,0.0283424258,0.0143284509,0.0006267970,-0.0027387133,-0.0211864859,0.0196550321,0.0065307724,0.0030539008,-0.0255705696,-0.0035995101,0.0046440051,0.0291502401,0.0201618299,-0.0307504069,0.0265855771,0.0131882252,0.0219918005,0.0162655413,-0.0277946237,-0.0234507713,-0.0189846270,-0.0199197922,-0.0235253889,0.0084020998,0.0294930656,-0.0049406001,0.0034289702,-0.0247746501,-0.0154071283,-0.0314663835,-0.0188537296,-0.0216349550,-0.0238851234,0.0079943240,-0.0059910389,-0.0163682271,-0.0262712650,0.0004932677,-0.0076789269,-0.0180538278,-0.0122651309,0.0266131684,0.0166586507,0.0188916046,-0.0153013011,0.0075974693,0.0315573253,0.0171690974,0.0310346037,-0.0072495854,0.0180036873,0.0080681201,-0.0132093010,-0.0158590116,-0.0297208261,-0.0130211692,-0.0002101767,-0.0110895047,0.0124799665,0.0126295285,-0.0084261596,-0.0263227634,0.0254195407,-0.0092726965,0.0008228286,-0.0022110764,-0.0204536393,-0.0014879954,-0.0314079970,0.0008064381,0.0244223513,-0.0251720119,-0.0076930323,0.0246198308,0.0129837235,0.0286605284,0.0001313685,-0.0178071111,0.0119473469,0.0200703721,-0.0235873088,0.0131996768,0.0295877941,0.0070749898,0.0046152826,-0.0090066846,0.0127690816,0.0299645979,-0.0196413212,0.0205856375,-0.0252915341,-0.0091841649,-0.0026387833,-0.0192947257,-0.0003390969,-0.0234561246,0.0259313658,0.0093434025,0.0154149672,0.0051475023,-0.0035166191,0.0073620370,0.0270772912,0.0176776052,-0.0080878865,0.0068197013,-0.0256374441,-0.0104034413,-0.0201611277,0.0048402478,0.0026042019,0.0109741241,-0.0207765903,-0.0205571596,0.0113986880,-0.0186347142,-0.0278998706,-0.0142436074,0.0152210481,-0.0021994659,0.0270902850,-0.0180399548,0.0003700566,0.0237926766,-0.0156885684,0.0062360461,0.0237316564,-0.0193167198,0.0110842166,-0.0155219287,-0.0048274524,0.0265890490,-0.0184021443,0.0107466821,-0.0070265434,0.0111670140,0.0316995941,-0.0069167339,0.0148980729,-0.0157875735,0.0197350830,0.0255519524,-0.0050456575,0.0020801255,-0.0160952527,0.0097840717,-0.0156734847,0.0004608171,-0.0258484744,0.0122029101,0.0253427792,0.0259518810,-0.0063272105,-0.0106992759,-0.0144159021,-0.0170802847,-0.0068387561,0.0223259721,0.0061467867,-0.0114697153,0.0024181132,-0.0007062142,0.0204721261,0.0229864493,-0.0278915763,0.0267125834,0.0041274852,0.0108258184,0.0094498042,0.0114884619,0.0165056027,-0.0205363352,0.0125183286,0.0200880580,0.0081298435,-0.0093647493,0.0069701630,0.0264577307,-0.0297957864,-0.0078155249,-0.0084585156,0.0107555287,-0.0265547968,0.0132409735,-0.0047191544,0.0136267906,0.0049130758,0.0293535478,-0.0112604517,-0.0063787210,-0.0202980805,0.0241859052,0.0126394229,0.0240215678,-0.0133863427,0.0144575080,0.0300495289,0.0238369945,0.0165409520,-0.0010934043,-0.0034692718,-0.0034135466,-0.0237079915,-0.0302715395,0.0147865955,-0.0132528422,0.0140483445,0.0127031701,-0.0045488989,-0.0190966725,0.0223857705,-0.0193861704,0.0114551699,0.0090048322,0.0196874514,-0.0170825180,0.0275328849,0.0127260378,0.0048602913,0.0158308558,-0.0262145847,0.0128459781,0.0184890982,0.0211730264,0.0021192618,0.0195404477,-0.0095190005,-0.0187708065,-0.0080217682,0.0087286709,0.0267622042,-0.0012022973,-0.0141594494,-0.0035636043,0.0142146749,0.0228411108,-0.0078338487,0.0243126545,-0.0150756426,0.0143571971,0.0109031713,-0.0294328798,0.0167186093,0.0173151884,-0.0047043129,-0.0010313588,-0.0211766381,0.0284488332,-0.0135201300,0.0066597867,-0.0046164263,0.0202073064,-0.0214559529,0.0105045298,0.0234272573,0.0173220113,0.0139366770,0.0058662519,0.0196278822,0.0098515553,-0.0147029553,0.0193894636,-0.0290918145,-0.0219932124,-0.0290925205,-0.0184520502,0.0302946828,0.0202289782,-0.0088225035,-0.0150199877,0.0112833939,0.0312752575,0.0310249161,-0.0216727033,0.0238793530,0.0258252341,-0.0262451526,0.0256574005,-0.0281064007,-0.0221810248,0.0167460963,-0.0219250377,-0.0197656043,-0.0160110183,0.0158599727,0.0091225775,0.0267595500,-0.0325081572,-0.0106608439,-0.0189581383,-0.0169550125,0.0075650443,0.0269981418,0.0250028074,-0.0281081218,-0.0204168092,-0.0031066493,0.0033975942,0.0090760197,0.0008387589,-0.0131305670,0.0133291194,0.0185533725,0.0062790979,0.0094578406,0.0123963170,-0.0005633549,-0.0180330556,-0.0076404754,-0.0049327845,0.0077510490,-0.0044054375,0.0303541720,0.0128397867,0.0068925619,-0.0297678150,0.0015788856,-0.0188613851,0.0108763482,0.0053829914,-0.0234185550,-0.0120798228,-0.0104472367,-0.0214047078,-0.0155093819,-0.0286468249,0.0230920147,-0.0187593475,-0.0187680405,0.0159640759,-0.0052036424,0.0060792509,0.0252799317,-0.0317745581,-0.0083039477,0.0227855854,-0.0222260728,0.0017299606,0.0058734571,-0.0158183537,-0.0078385565,-0.0025701488,0.0167350769,-0.0064064176,0.0182678830,-0.0132944882,-0.0239291023,-0.0086366739,-0.0260493122,-0.0006824072,0.0308241583,-0.0065160911,-0.0126943253,-0.0275954138,0.0156216212,0.0172539279,-0.0276758019,0.0224776920,-0.0270590652,0.0288449116,-0.0003239134,-0.0038072208,0.0322987922,0.0171486344,-0.0151124373,-0.0115737300,0.0270324238,0.0118678333,-0.0204012152,0.0027373317,0.0081069404,-0.0224617794,0.0012898030,0.0042880867,-0.0049259625,-0.0294048581,0.0090344306,-0.0301081575,0.0077645355,0.0315669477,0.0147878826,-0.0153226852,0.0170707796,0.0162318926,-0.0011566087,0.0016227829,0.0099897617,0.0005475533,0.0087554930,0.0026514581,-0.0255806334,0.0043641003,-0.0170290098,-0.0190096349,0.0170209389,0.0007947141,0.0230240021,0.0273460876,0.0265611932,-0.0013233321,-0.0289764982,-0.0271972194,0.0051615811,-0.0120697627,-0.0198439676,0.0193799809,-0.0052638329,0.0066862982,-0.0017999487,-0.0049693775,0.0263918545,-0.0310959946,0.0272118710,-0.0183709431,-0.0177385565,0.0293070134,-0.0143084787,0.0264448375,-0.0201741755,-0.0226623006,-0.0185101479,0.0054469141,-0.0014688169,0.0081064971,0.0102567356,0.0120073510,0.0128735509,-0.0254975576,0.0001201327,-0.0024167611,-0.0120482035,0.0261194594,0.0120269237,0.0103058051,0.0128041739,-0.0297864489,0.0231346637,-0.0101877376,0.0121244509,-0.0070579858,-0.0073499265,0.0020044900,0.0116809402,-0.0083987676,-0.0229606312,-0.0170419663,-0.0221707169,-0.0216408521,0.0105292257,0.0030816728,0.0206813421,0.0090321498,-0.0145745054,0.0170285739,-0.0260695424,-0.0084070833,0.0171624608,-0.0059622261,0.0119165489,-0.0177936219,-0.0078660566,-0.0039488273,0.0061660875,0.0260890219,0.0034259600,0.0196489636,0.0084186643,0.0114680389,-0.0243771765,-0.0178607069,0.0285471100,0.0204192251,0.0286924373,0.0086799711,-0.0067975810,0.0019188458,0.0157777667,-0.0179006755,0.0065785637,-0.0154591771,0.0024831770,-0.0242428295,0.0166713092,-0.0224675182,-0.0043511693,0.0201316122,-0.0220119469,0.0161438752,-0.0039682272,0.0092680901,0.0303757042,0.0142483460,-0.0038941139,-0.0066503705,-0.0195321385,-0.0036913198,0.0177086312,-0.0123808160,-0.0202777181,-0.0300270766,0.0263417270,-0.0249642376,-0.0244726855,-0.0200264752,-0.0171318427,-0.0206037275,-0.0155382631,-0.0289430600,0.0157010779,0.0189416986,0.0290100109,0.0035308346,-0.0291866027,0.0290426593,-0.0035590644,-0.0135896094,-0.0133338906,0.0312397517,0.0019838184,0.0169566553,-0.0051273643,-0.0309518240,-0.0183757469,0.0134573951,0.0030297199,-0.0022185578,-0.0233991165,-0.0244703125,0.0142711634,0.0091906255,0.0060947277,-0.0192289855,0.0217657816,0.0038968027,-0.0270757321,-0.0184430163,-0.0292699393,-0.0085559888,0.0041401507,0.0055637979,-0.0093268668,-0.0295967888,-0.0133194923,0.0105359312,0.0016853248,0.0123062357,-0.0016426132,-0.0302597042,0.0291611478,-0.0116355037,0.0255070217,-0.0189664047,0.0027226801,0.0056301891,-0.0268098041,0.0142264590,0.0120963519,-0.0269978009,-0.0005186473,-0.0038544112,0.0305210222,0.0140394513,0.0191767104,-0.0011525544,0.0029703632,0.0063768947,-0.0227423124,0.0127143469,0.0153351184,0.0239221528,0.0251177587,-0.0025180685,0.0212678257,-0.0100692855,0.0029914461,0.0016130331,0.0138580482,-0.0082733231,0.0293239411,-0.0083472086,0.0176329520,-0.0052201543,0.0094196843,-0.0286371317,-0.0166373532,-0.0057929098,-0.0183978789,0.0281496365,0.0235210266,-0.0052494728,-0.0097349752,-0.0278945230,0.0153155690,0.0169009734,-0.0112347342,-0.0133013008,0.0046629366,-0.0201716777,-0.0072473236,0.0261006523,-0.0260823499,0.0172237512,-0.0252258889,-0.0283926819,0.0097430618,-0.0134177962,0.0266279820,-0.0032967208,0.0079003060,-0.0303212907,-0.0297868084,0.0310513228,0.0023206538,0.0148840267,-0.0259337891,0.0169527214,-0.0173570253,-0.0116039310,0.0229773428,-0.0001739487,-0.0263968986,0.0153059224,0.0099114887,0.0062530735,0.0310121123,0.0037066995,-0.0200519525,0.0260985624,-0.0092950724,-0.0279710628,0.0206486639,0.0001006659,-0.0226626713,0.0241464134,0.0071919826,-0.0251641478,-0.0104015805,0.0272580311,-0.0114672203,0.0080483994,-0.0022243143,0.0168225300,-0.0299301520,0.0169695579,0.0089494232,0.0127467029,-0.0118154902,0.0299361311,-0.0289544445,-0.0013928066,-0.0306039900,-0.0179642700,-0.0106904469,-0.0016275314,0.0270868167,-0.0227183942,0.0098380605,-0.0087790526,-0.0165750850,-0.0153480470,-0.0194489844,0.0111426190,0.0152772553,0.0018923443,0.0068960702,-0.0106145544,-0.0279324297,-0.0058318940,-0.0185392704,-0.0001070175,-0.0015172859,0.0217912160,0.0230659079,0.0186934583,0.0201191138,-0.0160550345,0.0155558661
0.0247465819,-0.0034802547,0.0011020248,-0.0126822600,0.0092394501,0.0105465669,0.0148952613,-0.0004955012,0.0039095008,-0.0263592191,-0.0287337918,0.0156310815,0.0270792060,-0.0076955203,0.0094808051,-0.0163213331,-0.0004326617,-0.0015608596,0.0243795794,-0.0288876239,-0.0037651609,0.0305629522,-0.0123648960,-0.0052571306,0.0027007211,0.0165808015,0.0164953750,0.0078921020,0.0054485612,-0.0089789266,0.0266278200,-0.0110219475,0.0212791897,-0.0139370617,-0.0273131877,0.0088303126,-0.0183242336,0.0224680956,-0.0096351486,-0.0014353701,0.0118521117,-0.0169878062,0.0208578631,0.0116495378,-0.0316768326,-0.0237908009,-0.0148335379,0.0180488676,0.0184776913,0.0079508387,-0.0229441077,-0.0197062343,0.0160282813,0.0104959849,-0.0296629649,-0.0203428045,-0.0216561928,-0.0224123783,-0.0213322230,0.0192290414,-0.0159301944,-0.0088609690,0.0193942618,0.0092858924,0.0155798839,0.0270100739,0.0052808425,0.0089175813,-0.0292831231,-0.0027168754,-0.0192613285,-0.0190815460,0.0313712731,0.0265751071,0.0015759866,0.0183053836,-0.0193484016,-0.0263151396,0.0127428556,-0.0203358941,0.0254809670,-0.0095741730,0.0159680136,-0.0228339806,0.0011978028,-0.0129010081,-0.0010913135,0.0281074345,-0.0264597554,0.0301704165,0.0097452439,0.0207218882,-0.0206548609,0.0237362627,0.0134775015,-0.0283936504,-0.0012728315,0.0246381909,-0.0164674912,0.0254635792,-0.0057472489,0.0225717518,0.0150843561,-0.0244259890,0.0269528199,0.0220881402,-0.0021759383,-0.0293179266,0.0048330794,0.0154178971,0.0075648208,-0.0137643730,0.0076570399,-0.0078537334,-0.0210939515,0.0186905656,0.0107956687,-0.0230065808,0.0129200649,-0.0055030403,-0.0196813475,-0.0021555296,-0.0061308336,-0.0065892707,-0.0092194956,0.0078111254,0.0039948761,0.0072437455,-0.0218860563,-0.0219038762,-0.0014749487,0.0314698741,-0.0220586825,0.0009509708,-0.0087826904,-0.0066583101,0.0084712319,0.0032878614,-0.0016436244,-0.0324133746,-0.0008193157,-0.0306918081,-0.0215972960,-0.0081336908,0.0217467044,0.0109889358,-0.0088030258,0.0114419805,-0.0254998468,0.0309799854,0.0298439413,-0.0194573663,0.0070548952,-0.0237697158,-0.0252366532,0.0003384712,-0.0048945257,-0.0269716904,-0.0185430031,0.0234106127,0.0280710962,-0.0098537542,-0.0083327033,0.0084693795,-0.0265525356,0.0080095232,-0.0136098163,-0.0264403243,0.0175512228,0.0085329749,0.0269293375,-0.0193794612,-0.0055407491,-0.0163636748,0.0139639322,-0.0246369131,0.0311979707,0.0045620725,-0.0013125252,0.0072554247,-0.0132219400,-0.0224163476,0.0074534612,-0.0230748337,-0.0105108069,0.0297573749,0.0137955947,-0.0027806486,0.0226692595,-0.0113752726,-0.0109588718,0.0149267400,0.0283229966,-0.0238190405,-0.0109430263,-0.0109551968,0.0243357699,-0.0213716738,-0.0003800162,-0.0156386662,-0.0074170157,0.0098686619,0.0042873728,0.0243062135,0.0249006003,0.0099851210,0.0135673853,0.0187680461,0.0054622167,0.0139941555,0.0228518266,0.0150804706,0.0257017184,-0.0245731566,-0.0268588420,-0.0079464503,0.0030090022,-0.0214315709,0.0276356097,0.0150282057,0.0074716853,-0.0313229188,-0.0279769078,-0.0156227853,-0.0050385045,-0.0083614476,0.0262571555,0.0035762747,-0.0140251769,-0.0172635857,-0.0000255212,0.0150628202,0.0303926449,-0.0007534900,-0.0181861371,-0.0182826649,0.0200957078,-0.0279016439,0.0039018467,-0.0260094963,-0.0200282950,0.0001443479,-0.0189351328,0.0172682516,-0.0121960295,-0.0191194266,-0.0093773659,-0.0134033496,0.0248107985,0.0188067369,-0.0028890679,0.0245210286,-0.0077410657,0.0311276317,-0.0241626501,-0.0051212409,-0.0198536888,-0.0143014006,-0.0143823223,0.0184714571,0.0249471217,0.0182576738,0.0011952575,-0.0080549419,-0.0063024415,-0.0282068662,-0.0108950855,0.0176361632,-0.0198813248,0.0022206919,-0.0027126586,-0.0094913766,0.0031106193,0.0147275655,0.0313670784,-0.0210676994,0.0287538450,0.0263321642,-0.0243218243,-0.0222177561,-0.0071174777,0.0087010060,-0.0038904550,0.0064239218,0.0183925852,0.0159899667,-0.0225598142,-0.0196437426,0.0004984231,-0.0119241644,-0.0292942505,0.0111031989,-0.0112780072,-0.0281809121,-0.0044414373,0.0267900508,0.0278999545,0.0216080919,-0.0283085927,-0.0277997311,0.0013934696,-0.0238778852,0.0072638332,-0.0093619786,-0.0151617313,-0.0262468532,0.0050665922,0.0245438479,0.0136274034,0.0088072885,0.0012616870,0.0077054268,0.0137382811,0.0166125894,0.0292474553,-0.0280092079,-0.0053440481,-0.0019584883,-0.0011991234,0.0288391635,0.0161617510,0.0013252929,0.0041471110,-0.0105630122,0.0291483644,-0.0194670781,-0.0001413727,-0.0170174595,-0.0153402211,-0.0030731878,-0.0270280819,-0.0090883970,0.0038564207,-0.0201695543,-0.0322544090,-0.0074538225,0.0136284903,0.0185919926,0.0023422930,-0.0276454650,-0.0249815974,0.0032171672,0.0145604284,-0.0013412875,-0.0295043383,-0.0079223998,0.0175657943,-0.0128285177,0.0274372250,-0.0124565493,0.0260438919,0.0089349300,0.0067206551,0.0192762110,0.0072263717,-0.0038601398,-0.0201028846,-0.0189311076,-0.0034962371,-0.0206176937,-0.0185934901,0.0171799138,-0.0274827480,0.0210432224,0.0015378017,-0.0057200426,-0.0278405398,-0.0093443226,-0.0288473628,-0.0066160536,-0.0039617294,0.0123123406,-0.0243035536,0.0190614332,-0.0254284889,-0.0275416095,0.0297072846,-0.0299492981,-0.0021717981,0.0048360093,-0.0138075873,-0.0043925527,-0.0142288925,-0.0221159533,0.0145235648,-0.0121312728,0.0224609505,-0.0045997878,0.0237563644,0.0199490227,-0.0249735471,0.0098892460,-0.0243353248,-0.0005436271,0.0103661064,-0.0257773027,0.0266952813,0.0286570154,-0.0069524818,0.0050022784,-0.0115900384,0.0132877817,-0.0157546699,0.0129128732,0.0190525167,-0.0180303957,0.0064319270,0.0172707774,-0.0177743752,0.0067062015,-0.0089210384,-0.0167871509,0.0026648771,-0.0038719384,-0.0154345054,0.0067213895,0.0300759878,-0.0050609750,0.0123242289,0.0218286850,0.0235482603,0.0091541233,0.0175660830,-0.0248410366,0.0241178665,0.0181533396,0.0256053191,0.0282640327,-0.0089287004,0.0028150934,-0.0073523335,0.0149622643,-0.0297063906,0.0177210215,0.0188367218,0.0261842366,0.0159472078,0.0129387425,0.0161013808,0.0261097997,0.0055228132,-0.0296466351,-0.0139406994,0.0296987221,-0.0051712594,-0.0028463034,0.0040326416,0.0067316703,-0.0248805732,0.0268324707,0.0255591981,-0.0122998375,-0.0178191233,0.0131304087,0.0244229753,-0.0085913688,0.0234141219,0.0025248735,-0.0068898140,-0.0088680610,-0.0072765015,-0.0200625453,-0.0062195458,-0.0184970517,0.0141547732,0.0221241750,0.0074622259,-0.0105942870,-0.0094918506,-0.0278817844,0.0129592437,-0.0213475004,-0.0212719738,0.0046288511,-0.0184319541,-0.0209475625,0.0005573568,-0.0072764633,-0.0098817414,0.0141652552,-0.0119217914,0.0183771979,-0.0036013322,-0.0247812737,-0.0058270241,0.0026193059,0.0284645557,-0.0048857024,-0.0032896393,-0.0090128500,-0.0198370330,-0.0052420702,0.0277353115,0.0317719691,-0.0066712173,-0.0188201126,0.0028891440,0.0059911567,-0.0147921089,0.0270122420,-0.0227009282,0.0190514866,-0.0095946956,0.0267796218,0.0033754117,-0.0105937738,-0.0118180690,0.0257366914,-0.0059722937,-0.0131284585,0.0126690492,0.0014508044,0.0012760821,0.0171584282,0.0284729656,-0.0206816439,0.0125040002,0.0200887062,0.0254533365,0.0091380663,0.0007573776,0.0171268452,-0.0080065466,-0.0083626211,-0.0242561717,0.0283730868,-0.0031138037,0.0200156700,0.0090166526,-0.0237361751,-0.0019696502,-0.0026932631,0.0032868218,-0.0077456278,0.0204943679,-0.0106641753,0.0088636382,-0.0065873917,-0.0105668418,-0.0270914286,-0.0121367117,0.0273343325,0.0236146897,0.0186382271,-0.0021297091,0.0074718054,0.0092376610,0.0235072970,-0.0174170453,-0.0017292514,-0.0235189814,0.0034728278,0.0094929067,-0.0089082774,0.0041666199,0.0248881523,0.0197122395,0.0164441094,0.0032895356,-0.0273249988,0.0219474602,0.0121864406,-0.0312681273,-0.0055419323,0.0140396086,-0.0209368691,0.0005882425,-0.0149331344,-0.0220302045,0.0269317087,0.0096383449,-0.0233963672,-0.0126772188,-0.0116174044,0.0241886713,0.0170148816,0.0117033655,0.0090261828,0.0198767632,-0.0309940167,-0.0284409579,0.0215011388,-0.0269363262,0.0021443716,-0.0120399864,-0.0149064232,0.0258348919,-0.0203290787,0.0080450615,-0.0157955009,-0.0268660448,0.0028694845,-0.0038274985,-0.0302512813,0.0023030709,-0.0252298303,0.0300928615,-0.0205534864,-0.0048415698,-0.0290764086,0.0000783400,-0.0061289640,-0.0119959572,-0.0288755223,-0.0085897287,0.0146070281,-0.0194677319,-0.0110921161,-0.0173075031,0.0148935765,0.0074353255,-0.0253474247,-0.0209195856,-0.0044528325,-0.0003690562,0.0213712808,0.0085176099,0.0078928405,0.0184692759,0.0224111583,0.0041700248,-0.0284953378,-0.0184014458,0.0265548583,-0.0231092703,0.0283670910,0.0270327292,-0.0053397953,0.0119283022,0.0270924475,0.0186945256,0.0285331681,0.0060746144,0.0117082056,0.0150566185,-0.0257659741,-0.0009275537,-0.0279192794,-0.0000860259,-0.0037023393,0.0251647104,-0.0248238966,-0.0022544984,0.0234464798,-0.0072557866,0.0286425874,-0.0178450197,0.0262271836,0.0304352269,-0.0300305691,-0.0110155530,-0.0186049920,0.0096781161,-0.0030185981,-0.0275863726,0.0098333927,-0.0137061020,-0.0263714585,0.0270086396,-0.0131856482,0.0157560613,0.0180718750,0.0302581340,-0.0003206519,-0.0072669359,-0.0092243236,0.0095329788,-0.0174018554,0.0221183766,-0.0010270007,0.0077925138,0.0281598028,0.0041277432,-0.0123913409,0.0113227786,0.0016336080,-0.0111630363,0.0066463090,-0.0082382252,0.0111618116,0.0301606487,0.0037527049,0.0131879179,-0.0248957872,0.0119094774,-0.0074756905,0.0312905721,0.0106124245,0.0168588534,-0.0185185801,0.0062583401,-0.0020758540,0.0121582150,-0.0284966771,-0.0066796555,-0.0245467499,0.0196223147,-0.0266679022,-0.0237447135,-0.0185136423,0.0016256181,0.0231710840,0.0213928856,0.0165627301,-0.0018958477,-0.0188183375,-0.0124533763,0.0147971874,0.0219500791,-0.0127789397,0.0249255262,-0.0231142174,0.0223818142,0.0128146047,0.0008660271,0.0061614742,-0.0152519103,0.0058879792,-0.0035822100,0.0068066763,-0.0051751761,-0.0154189318,-0.0133452415,0.0087581091,0.0194510072,-0.0013867085,0.0003284440,-0.0099764327,-0.0241060294,-0.0196366925,0.0280129295,0.0182642415,-0.0219540242,-0.0014345916,0.0209600236,-0.0012740445,0.0205885340,0.0263460204,-0.0009350820,-0.0310290288,-0.0044632633,-0.0136304488,-0.0050740945,-0.0161199197,0.0031010401,-0.0157779492,0.0020722235,0.0205037482,0.0136716003,0.0195355229,-0.0034002578,0.0013877128,-0.0075504594,0.0058182753,0.0004039135,-0.0177065656,-0.0299553704,0.0281271730,-0.0192858521,-0.0079499027,-0.0114736715,0.0286216848,0.0024562564,0.0023217045,0.0272421744,-0.0059946366,0.0260576215,-0.0206373148,0.0164079666,0.0272500310,0.0105958171,0.0259318296,0.0255194791,0.0268933382,0.0091246292,-0.0282330979,-0.0219318010,0.0237502865,-0.0303534623,-0.0105212778,0.0053101541,-0.0020986600,0.0277921893,0.0101932334,0.0273029488,0.0001336539,-0.0235135444,0.0303238202,-0.0093862824,0.0254884716,-0.0292790905,0.0234426651,0.0287761129,0.0310275257,-0.0097618373,-0.0139716845,-0.0165635943,-0.0309407320,-0.0004044790,-0.0019062213,-0.0282428991,-0.0222369432,-0.0216832440,-0.0183751080,0.0152665731,0.0293319896,0.0311095342,-0.0088503957,0.0112799918,-0.0040760990,-0.0006581644,0.0283454526,0.0232568402,0.0234954990,0.0302953981,0.0193114709,0.0266945772,-0.0290179290,-0.0063862116,0.0001080985,-0.0246553272,-0.0094730230,-0.0276681222,0.0011035784,0.0025574027,-0.0255955495,-0.0073235389,-0.0304921642,0.0222805049,-0.0197692849,0.0164944399,0.0015596258,-0.0172187798,0.0230296385,-0.0165299904,-0.0192008708,-0.0059885918,-0.0152617861,-0.0097436821,-0.0198338609,-0.0033468062,-0.0172491800,-0.0091691371,0.0174567346,0.0155942086,0.0063222898,0.0140379537,-0.0009813079,-0.0282862037,0.0056393300,0.0128137376,0.0308754612,0.0185008254,-0.0087009836,0.0035839796,-0.0104755508,-0.0012062857,-0.0009161007,0.0128694270,-0.0145218438,-0.0197285712,0.0182775538,0.0283796638,-0.0185585096,0.0240555145,-0.0142836161,0.0042032641,0.0064050448,-0.0129903387,0.0261572395,-0.0166651960,-0.0048997072,0.0058087432,0.0212753918,-0.0043731756,-0.0172809977,0.0052128313,0.0270194355,-0.0060137343,-0.0040343525,-0.0186679717,-0.0052763885,0.0312307496,0.0204231273,-0.0027437187,0.0047991509,0.0048449957,0.0271578711,-0.0248691253,0.0128698051,-0.0297236983,-0.0272030085,-0.0217490904,-0.0291573461,0.0231191497,-0.0253301021,-0.0184126273,-0.0267006066,0.0098929508,0.0097728129,-0.0001077322,-0.0097761368,-0.0317353830,0.0212628450,-0.0120940572,-0.0156514924,0.0219102781,-0.0152465273,-0.0168266688,0.0164020173,-0.0268184617,0.0223195758,0.0169390589,0.0226554982,0.0158121139,-0.0289191678,-0.0170245133,0.0272212103,-0.0193993673,-0.0312381629,-0.0095349047,0.0222906675,0.0281180311,-0.0016694949,-0.0281047486,0.0308863036,0.0151496371,0.0245339666,0.0297255665,0.0277302358,0.0141450046,0.0035124873,0.0145540657,0.0294767376,0.0299352705,0.0254739355,-0.0111080082,-0.0109830461,-0.0056278850,0.0110209053,-0.0030936436,0.0268367976,0.0108118216,-0.0191985611,-0.0270545501,0.0088798609,0.0024029652,-0.0038579588,-0.0160007086,-0.0065051452,-0.0010039564,-0.0266945213,-0.0130647570,0.0220970251,-0.0159265455,0.0069856062,0.0097212410,0.0219248440,-0.0026239739,-0.0281124972,0.0068674614,-0.0142729627,-0.0071652890,-0.0166187212,-0.0095394617,-0.0034094551,0.0096930889,0.0074330945,-0.0118471077,-0.0196517389,-0.0077305036,0.0043758932,-0.0022484732,-0.0002441124,-0.0052259672,-0.0300189294,-0.0272151660,-0.0012464909,0.0109216860,0.0036444040,0.0201594681,-0.0247224439,-0.0131702134,0.0211747773,-0.0059376480,-0.0215625279,-0.0180071201,0.0133703733,-0.0146084065,-0.0132677155,0.0169815272,-0.0128293000,-0.0013304248,0.0024699713,-0.0227065478,0.0011693367,0.0022945700,-0.0046462961,-0.0099788317,-0.0194402356,0.0286470316,0.0277061518,-0.0177498907,0.0234156344,0.0162744988,-0.0087831747,0.0281042624,-0.0249505416,0.0208233707,-0.0086738700,-0.0112113738,0.0227298867,-0.0309537984,0.0305936858,-0.0117301298,0.0277862847,0.0069823060,0.0141346315,0.0053394474,-0.0032812757,0.0112234661,-0.0297855120,-0.0166660454,0.0283394251
-0.0264246948,-0.0306840017,0.0292278938,0.0225260463,-0.0021931475,0.0272597615,-0.0260926113,0.0125677651,-0.0304257441,-0.0232470315,-0.0256265439,0.0163053535,-0.0051841172,-0.0196223520,-0.0188957043,-0.0114143519,-0.0045650094,0.0184472017,0.0045554074,-0.0095743584,-0.0182320476,0.0276141353,0.0157942623,0.0208061747,0.0226326957,0.0267812181,0.0009135774,-0.0230815001,-0.0252305195,0.0267308708,0.0158567950,0.0168808419,-0.0159327853,-0.0182717405,-0.0057413243,0.0180640072,-0.0273626950,-0.0206061490,0.0033450995,0.0034607062,-0.0174812600,-0.0179189481,0.0210754182,0.0140199577,-0.0034574582,0.0217618793,-0.0208327938,-0.0279176179,0.0204020198,-0.0058872551,0.0161600206,-0.0052946769,0.0330827571,-0.0250611845,-0.0181737877,0.0143214222,0.0183272678,-0.0197111350,-0.0018377024,-0.0099553056,0.0255252291,0.0108667519,-0.0280489121,-0.0313308537,-0.0214531291,-0.0165124666,-0.0287207589,-0.0216455851,-0.0283818897,-0.0117126508,-0.0089456690,0.0071904589,-0.0001629992,0.0015358706,0.0307565127,0.0280890204,0.0254207850,-0.0162812918,-0.0253190231,0.0234315787,0.0249871667,0.0210182834,0.0069182357,-0.0277565736,-0.0266555324,-0.0109033296,0.0102147507,-0.0190392863,-0.0077385823,-0.0247778744,-0.0069954996,0.0226316098,0.0268680640,-0.0055455291,-0.0177729186,0.0276256688,0.0142539861,-0.0261413325,0.0315451026,-0.0062131872,0.0205306001,0.0300033987,0.0108525800,0.0084796920,-0.0314429291,0.0008001874,0.0120967580,0.0274220128,0.0246168673,0.0132257286,0.0264825672,-0.0243640896,-0.0174544994,-0.0064994972,0.0225322489,-0.0279110763,-0.0285699479,-0.0269637629,-0.0199395325,-0.0265280847,-0.0269186553,0.0007824698,0.0236345921,-0.0025179158,-0.0275333151,0.0011925079,0.0243549682,0.0141515136,0.0075885621,-0.0128919771,0.0056083733,0.0049866564,0.0014761708,-0.0274327956,-0.0284311194,0.0183602944,0.0105361184,0.0062814490,-0.0186599232,-0.0235790815,-0.0005658809,-0.0150614595,-0.0237153452,0.0093078138,0.0068938760,-0.0077770837,-0.0003761033,0.0272991396,0.0089850258,0.0156528354,-0.0167802684,-0.0085460702,0.0039623589,-0.0174886528,-0.0191889219,0.0105345957,0.0285560321,0.0290976409,0.0080075385,0.0205573533,0.0191030223,-0.0164156649,-0.0292286035,-0.0204819553,0.0103419656,0.0275373291,0.0155725870,0.0268033557,0.0159289539,-0.0043713581,-0.0011012900,-0.0070797312,-0.0050513553,0.0121286558,-0.0191586129,0.0078344783,0.0171979163,0.0131205888,0.0211219359,0.0225749612,0.0249723289,0.0254261717,-0.0131460447,0.0008756376,0.0060732244,-0.0021623459,0.0223097149,-0.0247899238,0.0004254310,0.0276362486,-0.0188388862,-0.0260122623,0.0029290677,-0.0019402666,0.0279756356,-0.0122832283,-0.0237343349,-0.0071683940,-0.0220272597,-0.0062418045,0.0246350653,0.0077467929,-0.0109475553,0.0070091654,0.0252005998,0.0207775384,0.0131061208,-0.0285970680,0.0218096115,0.0011145803,0.0273897052,0.0021262476,0.0273745842,0.0069169276,0.0032125795,-0.0173309054,0.0254868716,0.0120179756,0.0197073985,0.0110399034,0.0101654865,-0.0252728015,-0.0155878514,-0.0246185232,-0.0262654331,-0.0255717691,0.0182404332,0.0233258940,0.0248938780,0.0142309787,0.0134586496,-0.0042080157,0.0159674101,-0.0018946783,-0.0279059373,0.0149908150,0.0134819737,0.0102519868,-0.0241951048,-0.0013015218,0.0052792989,-0.0273798294,0.0319110788,-0.0303696059,0.0032690144,0.0001490658,-0.0144231608,0.0134004243,0.0078861015,0.0166255552,-0.0064721424,-0.0211007353,0.0229426343,0.0101063773,0.0049511204,-0.0132920137,-0.0065518934,0.0086343614,-0.0209340695,-0.0291080456,-0.0116832005,0.0273826960,-0.0080927378,-0.0205041915,-0.0241583716,0.0104940096,-0.0189000443,0.0274858717,0.0201419964,-0.0025845149,0.0294277724,0.0112961866,0.0124858199,-0.0286702681,0.0168818291,0.0010146271,0.0109458957,-0.0233180858,-0.0160851628,0.0064517842,0.0097713480,0.0106753642,0.0074048396,0.0191381928,0.0306840595,-0.0053271400,0.0080483109,0.0143032074,0.0050985278,-0.0104621500,-0.0048056841,0.0217222106,0.0208207387,0.0041943244,0.0104598962,-0.0203803107,0.0126189189,-0.0104338676,0.0198315457,0.0166822691,-0.0319892727,0.0307587907,-0.0109866085,0.0032592288,0.0153455185,0.0169721916,0.0177589990,0.0148712872,0.0124822976,-0.0155681465,-0.0043541589,0.0107342452,-0.0047348216,0.0215928797,0.0174344517,-0.0143379346,-0.0322982706,0.0189922750,0.0048680715,0.0051096189,0.0011690664,0.0068619777,0.0248430949,-0.0056726187,0.0196054969,0.0161815826,0.0280693956,0.0290523749,-0.0195058547,-0.0234450903,0.0216255039,0.0191894732,0.0183166116,0.0191854276,0.0283909906,0.0226736125,0.0149184754,-0.0181017201,0.0279521309,-0.0188621990,0.0285294615,0.0183464736,0.0078402013,0.0159810465,-0.0105996728,0.0089621767,0.0223338548,-0.0263225064,0.0184390433,0.0255283229,-0.0152091030,-0.0176849458,-0.0090470780,-0.0269326661,-0.0188344587,0.0030604145,-0.0164008904,-0.0152494824,-0.0049152295,0.0061198864,-0.0285101570,0.0112055698,0.0229622237,-0.0199072789,0.0278404187,0.0044137691,-0.0317350440,0.0090257702,0.0246614013,0.0086263679,0.0033354915,0.0095303794,0.0051650964,-0.0261355713,0.0102191875,0.0132258916,0.0060169455,-0.0185968839,0.0033435959,0.0220149308,-0.0062745176,0.0249944925,0.0146662444,-0.0311947074,0.0290475581,0.0298938341,-0.0296260342,-0.0255031660,0.0043886891,0.0186198819,-0.0267777536,-0.0027319966,-0.0285616033,0.0027226068,-0.0304857995,-0.0275982264,0.0099973669,0.0132410377,-0.0171945207,-0.0112449145,-0.0237954948,-0.0159999076,0.0253289212,0.0108460821,-0.0150158200,0.0304851253,-0.0207979120,0.0059382482,0.0122932689,0.0218111277,-0.0213496052,0.0171823874,-0.0027859360,0.0011774737,-0.0239794422,-0.0276674740,-0.0172059685,-0.0290731732,-0.0252644531,0.0006614358,-0.0006082029,-0.0211523585,0.0325591564,0.0331483409,-0.0270633195,-0.0252899509,0.0257712323,0.0263979938,-0.0205555279,-0.0015934332,0.0248844679,0.0095504960,0.0019925653,-0.0234717354,-0.0087487502,-0.0250786655,0.0073929685,0.0085047102,-0.0157793239,0.0156020606,-0.0028350395,0.0264913160,0.0306142177,0.0112217385,0.0023694457,0.0321206711,0.0072130347,-0.0094845798,-0.0131331580,-0.0264608320,-0.0016130519,-0.0062927105,0.0105023365,-0.0015670232,-0.0204793904,-0.0177081805,0.0268605724,0.0238076802,-0.0269718654,-0.0206516758,0.0117623722,-0.0246321131,0.0060990420,-0.0188896004,-0.0001458794,0.0164194051,0.0145620080,0.0079286518,0.0218332317,-0.0096276114,-0.0195861980,0.0015832720,-0.0026541089,-0.0073085683,-0.0187543966,0.0060489625,0.0162151512,0.0066719498,0.0128718251,-0.0034825862,0.0249453560,0.0040955553,0.0143549554,0.0168240555,-0.0068517793,-0.0148008727,-0.0072023394,-0.0204033554,-0.0205038749,-0.0082613155,0.0017608168,0.0205063652,-0.0176049825,0.0103004724,0.0243667718,-0.0149524277,-0.0111316796,-0.0078879297,0.0045042811,0.0248544104,0.0158633087,0.0015786737,-0.0162074566,-0.0187301170,-0.0261186939,0.0103078885,0.0279008541,-0.0227917600,-0.0225906670,-0.0054063741,-0.0094062509,-0.0251428615,-0.0185176227,-0.0248262156,0.0142605742,0.0108852768,0.0182137061,0.0192997809,-0.0028361641,-0.0060978211,0.0163184609,0.0268363934,-0.0167938471,-0.0028285214,0.0148755806,0.0325175971,-0.0065844595,-0.0204103943,-0.0182718877,-0.0017104609,-0.0315756835,-0.0203246791,-0.0282156412,-0.0067146071,-0.0204018243,-0.0178828500,0.0131396865,0.0033804101,0.0204027090,0.0183718875,0.0096548339,-0.0047969338,-0.0158775859,-0.0198406577,0.0004309729,-0.0286211036,-0.0187810771,-0.0017221140,-0.0188420285,0.0101967948,0.0301689636,-0.0124758249,-0.0126697691,0.0066640805,-0.0110734487,-0.0292674880,0.0111813582,-0.0030267651,-0.0162964202,0.0041655721,0.0131337866,-0.0219685398,-0.0234957952,-0.0126097295,0.0260318201,-0.0236128811,0.0199456774,0.0260798894,-0.0130510116,-0.0295053795,-0.0235359780,0.0200148616,-0.0167398378,-0.0226859096,0.0025738720,-0.0224812627,0.0150855454,-0.0096513797,-0.0017991556,-0.0139345974,0.0071620368,0.0236973166,0.0171515327,0.0067993728,0.0010477658,-0.0245517567,-0.0095050009,-0.0211854912,0.0259524640,-0.0108217094,-0.0257132798,-0.0241487678,-0.0017783584,0.0223707799,-0.0236866213,0.0188319590,0.0149713717,-0.0217144471,0.0145258885,0.0188791957,0.0301601663,0.0226882305,-0.0131553570,-0.0011957007,0.0116384327,-0.0119271223,0.0091060931,-0.0201385766,-0.0103822313,-0.0233299322,0.0129501196,-0.0243229382,-0.0024210135,-0.0065302127,-0.0105779357,-0.0003423238,-0.0103361942,-0.0307493526,0.0261706207,0.0263307057,-0.0200306401,-0.0295933541,0.0183811467,0.0261074509,0.0160460081,0.0071062520,0.0263341535,0.0090128845,0.0010654589,0.0176105201,-0.0226170830,0.0015586838,0.0189417563,0.0224500187,0.0184224341,0.0010242974,0.0198610947,0.0174131189,0.0078304149,-0.0210885853,0.0103070978,0.0217218008,0.0252936091,0.0103460886,0.0089622000,0.0206415318,0.0122014731,0.0132064186,-0.0075547993,-0.0211588629,0.0198160615,0.0013383236,-0.0004857616,-0.0220157057,-0.0255206078,-0.0264885277,-0.0065370174,0.0098451898,0.0281580295,0.0281658601,0.0228940248,-0.0007152344,-0.0243906211,0.0066543045,-0.0299249347,0.0289252531,-0.0085477121,0.0250646751,-0.0018328800,0.0307880919,0.0285086818,-0.0267861895,-0.0182206538,-0.0308883451,-0.0102688037,0.0176186524,0.0070864540,0.0288622472,0.0240497161,-0.0271812752,-0.0217855312,0.0141657367,0.0011224566,-0.0254898500,0.0292694159,-0.0108341575,-0.0025981287,0.0056215976,-0.0012139858,-0.0260691177,-0.0189337879,-0.0047109192,-0.0167341735,0.0193053856,0.0091689005,-0.0017413461,0.0040737092,-0.0165010132,0.0038113359,0.0009577905,-0.0235139877,-0.0196311846,0.0188969206,-0.0118131172,0.0208416339,0.0128966244,0.0289695617,0.0239764620,-0.0274817981,0.0245012566,0.0182768144,-0.0326807536,-0.0002860642,0.0081232078,0.0026425025,-0.0205333326,0.0223914459,0.0097752670,-0.0044805976,0.0062430161,-0.0319403112,0.0102679450,0.0236265007,0.0066829496,-0.0237682592,-0.0198896658,-0.0182679631,0.0287066400,-0.0105200708,0.0072603468,0.0129520399,0.0152882142,-0.0201142710,-0.0284617357,-0.0122720720,-0.0035262548,-0.0030543786,-0.0119925616,0.0072189141,0.0285274871,0.0232573580,-0.0192582235,0.0201720819,0.0050942916,-0.0086764945,0.0139483428,-0.0097271204,0.0267409105,0.0065965727,0.0023362562,0.0238664616,-0.0279447231,0.0125963986,-0.0238248128,-0.0308952443,-0.0103469957,0.0234437827,0.0221021194,-0.0005183460,-0.0211967509,-0.0122697316,-0.0248068273,-0.0011839939,0.0051325113,-0.0010361465,0.0186215844,-0.0215988960,0.0304738190,0.0228191707,-0.0172795076,-0.0227078665,-0.0283847507,-0.0072952099,0.0154442061,-0.0034919751,-0.0239817109,-0.0206393972,0.0088076117,0.0102622956,-0.0123462379,-0.0217203181,0.0047908598,-0.0005134188,-0.0110028265,-0.0183415059,0.0211182404,-0.0304168612,0.0242270734,-0.0158422329,0.0138085196,0.0230979621,0.0043049310,-0.0303595681,0.0174666941,0.0176046435,0.0044061216,0.0227438398,-0.0313946418,-0.0292139016,-0.0189000685,-0.0043593640,0.0202219617,0.0134535609,0.0301374961,-0.0060527781,-0.0189256165,0.0231003985,0.0172907617,0.0169895552,-0.0124993799,0.0227784868,-0.0142831262,-0.0038792463,-0.0087473458,-0.0203599837,-0.0233912244,0.0296254568,0.0033041392,-0.0201797374,0.0072425222,-0.0002082354,0.0192299467,0.0104863523,-0.0164821222,0.0292966031,-0.0266892016,-0.0156603996,0.0010577252,0.0224363320,0.0174855720,0.0084152799,0.0021462245,-0.0202599354,0.0016184024,0.0048678042,0.0094368216,-0.0030518272,0.0160225239,0.0224149786,-0.0091553917,0.0010903755,-0.0292071719,-0.0142028527,0.0286194347,-0.0267101303,0.0209837761,0.0010147050,-0.0000255295,0.0038051507,-0.0246075019,-0.0168810692,-0.0070526227,-0.0004978728,-0.0154020321,0.0142655745,0.0004866115,-0.0022588824,-0.0116422977,-0.0227997508,-0.0046440880,0.0242070034,-0.0288191102,-0.0298357643,0.0142123522,0.0021794192,0.0238331743,-0.0287985243,-0.0281241257,0.0203998070,-0.0236728471,-0.0022270654,-0.0101084504,0.0134674534,-0.0117343236,0.0243036244,0.0122820539,-0.0140197761,-0.0111406697,-0.0051658396,-0.0033585555,-0.0143035660,-0.0191405285,-0.0291638952,-0.0180997793,-0.0107568875,0.0087387171,-0.0228302013,-0.0009590185,0.0256777555,0.0195725746,-0.0019682671,-0.0047273678,-0.0276060104,0.0161227807,0.0091068838,0.0150540480,-0.0061455960,-0.0266968720,-0.0089263264,-0.0065112975,-0.0023747371,0.0167923253,-0.0293346811,0.0266134590,-0.0102618057,0.0113817407,-0.0095768813,0.0004310686,0.0162865650,0.0085724238,-0.0167327728,-0.0030436309,0.0208230335,-0.0272128750,0.0049604611,0.0162415281,0.0148533005,-0.0069090747,0.0278010517,0.0019004020,0.0285393447,0.0151651241,-0.0219070558,-0.0085461540,0.0227005221,0.0040731020,-0.0280488841,-0.0251178294,0.0175090693,-0.0014228461,0.0322243385,-0.0143062556,-0.0129681900,0.0243761223,-0.0239062775,-0.0115172518,-0.0224745478,-0.0262469128,-0.0202477258,0.0244333651,0.0134179452,-0.0154317953,0.0167187005,0.0278429147,-0.0125617739,-0.0031996029,0.0271004457,-0.0220642183,-0.0033344449,0.0041913218,0.0039778403,0.0158982314,-0.0266923625,-0.0252019577,-0.0000821331,0.0076300041,-0.0000454907,0.0183480624,0.0271002743,0.0271805730,0.0218852554,0.0123830065,-0.0164734181,0.0070615718,0.0178423654,0.0316545926,0.0194185972,-0.0233160742,0.0197468773,0.0042689322,0.0010323423,-0.0227054954,0.0272774547,0.0143963108,-0.0043255556,-0.0162449665,0.0100479620,-0.0148377828,0.0066875471,0.0233820584,0.0131625105,0.0004235435,0.0012611705,-0.0155773703,-0.0265292767,-0.0275466181,0.0235969387,0.0222781338,0.0145552270,0.0249486361,-0.0210221447,0.0251596011,-0.0287830997,-0.0157920923,-0.0169206914,-0.0096297506,0.0177505277,-0.0054839128,0.0053430637,0.0185569841,-0.0127193118,-0.0060346122,0.0072013121,0.0041476539,0.0008944826,0.0281246211,0.0296583325,-0.0088292519,-0.0173998009,-0.0050564543,-0.0305327531,-0.0266211405,-0.0125840381,0.0286205169,-0.0235326644,0.0188444052,0.0273215063,-0.0223382022,0.0291937497,0.0216481257,-0.0198852979,0.0013314345,0.0255926382,0.0146280676
-0.0158444457,0.0145183811,0.0261975881,-0.0229436122,-0.0270007420,0.0114861885,0.0081884526,0.0015092808,-0.0096584195,-0.0052475040,0.0167580284,-0.0017414906,0.0104483422,-0.0090506766,0.0188772567,-0.0314254574,-0.0307306740,-0.0216992330,0.0286261179,-0.0035253295,0.0086367857,-0.0064436793,0.0202858560,-0.0135907186,0.0158193298,0.0072454340,0.0078824079,0.0034756153,-0.0110515961,0.0036924114,-0.0191092640,0.0303348526,0.0103945779,-0.0059962478,-0.0266773757,0.0099105760,0.0013801523,-0.0231587682,0.0232311599,0.0243839528,-0.0167784691,-0.0313514508,0.0240782443,0.0034898408,0.0068851174,-0.0261988007,-0.0094913291,-0.0229948182,-0.0154573694,-0.0043887305,0.0101607163,0.0206571426,0.0268790107,-0.0013834665,-0.0080484124,-0.0190368574,-0.0161567759,0.0146087846,-0.0296979323,0.0011480302,0.0087094028,0.0027037147,-0.0280271377,0.0032188890,0.0251110122,0.0172940083,-0.0311271977,-0.0105323521,-0.0086722923,-0.0173261184,0.0130089829,0.0007994210,-0.0011855456,0.0280811489,-0.0122619234,-0.0107374499,-0.0123383086,0.0078612752,-0.0089745289,-0.0091108698,0.0090956725,0.0093628420,0.0080834031,0.0308693629,-0.0291672945,0.0219112001,0.0259643160,0.0066051176,0.0188816525,0.0026088697,0.0290891025,-0.0143041667,-0.0259588026,-0.0189917907,0.0038866256,-0.0251050964,0.0258256961,0.0173564535,-0.0279148202,0.0135627557,-0.0031752617,-0.0055146003,0.0137140332,0.0093022212,0.0234973263,0.0259455629,0.0272341389,-0.0161321349,-0.0183826219,0.0165295638,-0.0186394881,0.0199873205,-0.0039709024,0.0209161248,-0.0163424592,-0.0123905968,0.0163425580,-0.0135720726,-0.0203264095,-0.0098156603,0.0095301103,-0.0013235396,-0.0174851269,-0.0089071486,-0.0241147205,-0.0092923101,-0.0124751916,-0.0073101944,-0.0105879996,0.0009859494,-0.0195405241,-0.0274633933,-0.0155706657,-0.0049698385,-0.0293000229,-0.0119380476,-0.0197489019,0.0046200831,0.0246381033,0.0086911842,-0.0092017148,0.0256280936,0.0185701307,-0.0200364143,-0.0075851283,-0.0032540273,-0.0141129922,0.0229967628,-0.0215722695,0.0269765556,-0.0224568006,0.0013583328,0.0280216187,-0.0123693328,-0.0164643079,-0.0095976815,0.0276236795,0.0169336069,-0.0169198755,0.0229143724,0.0209979024,0.0069397525,0.0249291845,0.0182376876,-0.0079999622,0.0236900728,0.0048905904,0.0162714459,0.0169038195,0.0079104062,0.0104995975,0.0271548312,0.0235259552,0.0068455371,0.0006423898,0.0160775874,-0.0072104582,0.0281274710,0.0059303311,0.0235479735,0.0097774174,-0.0047245929,0.0268343128,0.0209107399,0.0031040437,0.0198195130,-0.0173167177,0.0027066499,0.0270824693,-0.0251439381,-0.0057489988,-0.0096017048,-0.0216385834,0.0233825706,-0.0272684749,-0.0220665950,0.0090440754,0.0313449055,-0.0315858722,-0.0212278254,-0.0062772240,-0.0219559073,0.0291343071,0.0050852876,-0.0165506881,0.0207723435,0.0220495891,0.0006287835,0.0192021355,-0.0218066610,-0.0007329174,-0.0065982933,-0.0134575451,-0.0102342917,-0.0044837790,-0.0094631836,-0.0237624142,0.0081115030,0.0231806915,-0.0076898476,-0.0207282212,0.0056803878,0.0088524325,-0.0062786611,0.0231000241,0.0179513879,0.0162569378,0.0155132459,-0.0059462166,0.0023317670,-0.0051309573,-0.0023345724,0.0247408841,-0.0077529838,0.0255124383,0.0168294534,0.0108440462,-0.0238335300,0.0196271818,-0.0139021687,0.0184462368,0.0003319386,0.0293186624,0.0087337615,-0.0061756312,0.0058256397,-0.0205293950,-0.0041233040,0.0285476428,0.0074048014,0.0019294169,-0.0116737727,0.0268374402,0.0203102492,0.0126182642,0.0244560055,0.0226558149,-0.0119942706,-0.0251895729,0.0062659485,-0.0276890099,-0.0230295043,0.0011167919,0.0043258192,-0.0173261296,-0.0193561465,-0.0299535524,-0.0097599290,0.0106808599,-0.0241479967,-0.0211566575,0.0027453969,-0.0147285825,-0.0113748126,0.0270329583,-0.0142342718,0.0269214846,-0.0116192698,0.0239697434,-0.0079182656,-0.0170601700,-0.0153531982,0.0040679974,-0.0038317754,-0.0105656041,-0.0131352469,0.0013365751,0.0105130440,0.0104220584,0.0318387710,-0.0218472257,-0.0104025360,0.0224504713,0.0111870039,-0.0035189339,0.0293297376,0.0157907866,0.0180113669,0.0282733403,-0.0279050078,0.0141179468,-0.0086669130,-0.0104605025,-0.0281018429,-0.0086940723,-0.0155124636,-0.0301407799,0.0029614470,0.0046366164,-0.0158002283,-0.0066729360,0.0234852526,0.0208015610,0.0157087352,-0.0188636947,-0.0077255247,-0.0285489932,0.0036879610,-0.0103453249,0.0041287253,0.0200652964,-0.0251742974,0.0183059741,0.0151115488,0.0239774939,-0.0292597972,0.0013076455,0.0301456675,-0.0160587262,0.0093248384,-0.0227674786,0.0139229661,-0.0282474793,0.0089818109,-0.0114758397,-0.0072907233,0.0288487636,0.0295777060,0.0319589116,0.0014535522,0.0047861938,-0.0243057255,-0.0033784055,-0.0249500498,-0.0161464438,0.0037467713,0.0157550480,0.0145396776,-0.0003056825,0.0070584095,-0.0121643562,-0.0091797821,-0.0232960973,0.0195259564,0.0122177862,0.0295934640,-0.0140778469,-0.0030977062,0.0049478146,0.0281189624,0.0256465115,-0.0090709142,-0.0118048517,-0.0123741133,-0.0281680003,0.0195699036,-0.0272484217,-0.0302046724,0.0126610426,0.0024154985,0.0160994250,0.0259630829,0.0101143820,-0.0030264643,0.0143148405,-0.0116543090,0.0188418515,0.0056091947,-0.0254205540,-0.0173265655,0.0186831541,0.0077987383,0.0156059945,-0.0027861504,-0.0316817798,-0.0028279261,-0.0033742147,0.0075141559,0.0263579506,-0.0281781275,-0.0115632759,-0.0137110148,-0.0085339975,0.0264280718,0.0198111162,-0.0239862259,0.0267255828,-0.0307237264,0.0242632739,0.0087665161,-0.0122112455,-0.0000210609,0.0054884981,0.0070652072,0.0088413022,0.0215988327,0.0034851828,-0.0140516981,-0.0175789837,-0.0072877975,-0.0266441144,-0.0016843269,0.0258127991,-0.0198485423,0.0072063399,-0.0212945249,0.0294405390,0.0043019936,0.0234950520,0.0019029182,0.0068210862,-0.0058266227,-0.0071325037,-0.0073006451,-0.0310826078,0.0154834734,0.0229023136,0.0045081601,-0.0212603379,-0.0144857550,-0.0078841178,-0.0131621398,-0.0071997908,-0.0132521708,0.0197952408,0.0298750177,0.0142455129,0.0293660387,-0.0186528750,-0.0096749896,0.0298104398,0.0034748230,-0.0211348422,-0.0260026660,0.0013480142,-0.0058715264,0.0101394420,-0.0102433162,0.0264642444,0.0067934771,-0.0208280161,-0.0209433660,0.0167221837,-0.0034540785,0.0169320833,-0.0023720183,-0.0231885444,-0.0119468812,-0.0037739142,0.0125567047,-0.0033253815,-0.0229015797,0.0099846758,-0.0152665656,0.0014375709,-0.0238017272,0.0053687315,-0.0133084813,0.0003502462,0.0202545486,0.0161553342,-0.0201737061,0.0066957306,-0.0255314894,0.0215661917,-0.0268315021,-0.0002397529,0.0016632046,-0.0268622786,0.0213846434,0.0072272643,0.0225580372,0.0198629182,0.0028731567,-0.0226487741,-0.0017288032,0.0024803716,0.0150809903,0.0039274092,0.0176850837,-0.0285041034,0.0125227412,0.0288814977,-0.0040485766,-0.0126707507,0.0056866910,0.0010526959,-0.0083784610,0.0171919521,0.0177944507,-0.0133145917,0.0050672106,0.0108670639,0.0066160834,-0.0033192418,0.0198442731,0.0200453512,-0.0038997291,0.0247336850,0.0254274886,0.0114462813,0.0018223146,0.0222744178,0.0154859740,0.0110229142,-0.0041280901,0.0270593427,0.0080577377,-0.0167499948,0.0116564846,0.0252713729,-0.0170095842,-0.0220732279,0.0021101625,0.0156114474,-0.0114744380,-0.0243619438,0.0125730541,-0.0007843293,0.0121676633,-0.0234670155,-0.0281119123,-0.0011179561,0.0144951642,-0.0294867959,0.0192960352,0.0081069777,-0.0125139002,-0.0033182534,-0.0279177818,-0.0041175480,-0.0045341230,-0.0302417260,-0.0191660617,0.0079842955,-0.0191708803,-0.0108480155,-0.0085028084,-0.0258440655,-0.0132720182,0.0099303834,0.0039431034,-0.0189368539,0.0202682689,0.0125077730,-0.0070637097,0.0029943674,0.0306689702,0.0139500797,-0.0140131181,-0.0300853532,0.0293516852,0.0040450804,0.0059752171,-0.0152295092,-0.0145174544,0.0055957017,-0.0067976746,0.0296530984,0.0101970527,-0.0006109535,-0.0115128281,-0.0158565827,-0.0137455035,-0.0074630226,0.0214656554,0.0165964179,0.0227489453,-0.0214234069,-0.0227496009,0.0057691764,0.0094898501,0.0126804626,0.0312769301,0.0249049701,-0.0170578659,-0.0083191134,0.0287364703,-0.0047931401,0.0103125302,-0.0202472061,-0.0253447071,-0.0280956216,-0.0099422038,-0.0086142002,0.0179161504,0.0068339631,-0.0156910103,0.0187828764,-0.0221781041,0.0227350537,-0.0028013929,0.0293415319,-0.0147754112,0.0104883714,-0.0151318517,0.0176377315,0.0126523385,0.0320243053,-0.0175262168,-0.0085110189,-0.0010752061,-0.0306223612,0.0103285126,0.0072726971,0.0221325085,0.0027226219,0.0202833954,-0.0109959245,0.0059864726,-0.0199208036,0.0291213747,0.0007460280,-0.0175867546,-0.0304373894,0.0132057695,0.0168548804,0.0059054499,0.0259643570,-0.0079606352,-0.0063257879,0.0134923132,-0.0161518902,0.0312223677,0.0099977888,0.0196344815,0.0177743584,-0.0293622874,0.0145532573,0.0233483072,0.0292567294,-0.0035815914,0.0264356062,-0.0116555765,0.0078471247,-0.0027096949,0.0256381407,0.0277517792,0.0195949953,0.0235196333,0.0199651364,-0.0186983775,-0.0121011222,-0.0093407258,0.0103140194,-0.0131715331,-0.0309385061,0.0096712736,-0.0104854396,-0.0127504654,-0.0273186397,0.0072508776,0.0112007409,-0.0221202504,0.0019555748,-0.0250856467,-0.0236894824,0.0041993735,-0.0043059299,-0.0021367804,-0.0056988159,-0.0107533224,-0.0259743873,0.0181288030,-0.0174548551,0.0253631026,-0.0045764358,-0.0268374253,-0.0163695142,0.0278791729,-0.0258166324,0.0053956034,-0.0162300393,-0.0066441279,0.0125271101,-0.0173783675,0.0091802459,0.0022928184,0.0175838619,0.0267770495,0.0078896899,0.0079405876,0.0234008394,0.0243116897,-0.0154147884,0.0221496820,-0.0041227010,-0.0069572385,-0.0188299324,0.0102242818,0.0249091126,-0.0025535002,0.0258486904,-0.0154855466,-0.0241127424,-0.0237157661,-0.0308779143,-0.0207758471,0.0313668959,0.0213773660,0.0077770497,0.0303431880,-0.0130945817,0.0238815844,-0.0242628139,0.0189830903,0.0155024929,-0.0116256261,0.0235429723,-0.0276071560,-0.0131906653,0.0242654309,-0.0022565094,0.0274876449,0.0155402692,0.0275009256,-0.0255818218,-0.0117030209,-0.0108976429,-0.0196218770,0.0246015415,-0.0300486870,0.0203656815,0.0223375130,0.0069503598,0.0242151804,-0.0092930282,-0.0231022798,-0.0173203982,-0.0017877937,0.0231730714,-0.0126020676,-0.0077052685,0.0169553701,0.0260673072,-0.0294908416,0.0030658208,0.0279245973,0.0181901883,0.0293762945,-0.0273675919,-0.0240556002,-0.0029318535,0.0137015739,-0.0252113249,0.0218584780,-0.0138858035,-0.0263743866,0.0166640040,-0.0267241616,0.0277837664,-0.0044858479,0.0198028982,-0.0046202387,0.0030933914,-0.0179045927,0.0163669847,0.0167075042,-0.0034285814,-0.0045543513,0.0051765712,0.0189478043,-0.0121435802,0.0310571995,0.0092817461,-0.0194336288,-0.0108833192,0.0271366406,0.0027325754,-0.0199086685,-0.0231792834,0.0170173086,-0.0268144440,-0.0202945154,0.0087637380,0.0154129984,0.0004602814,-0.0261767451,0.0018756731,0.0268185660,-0.0059115896,-0.0306920800,-0.0064127240,0.0296493806,-0.0034617102,-0.0217869133,0.0040872609,-0.0027377610,0.0096451221,-0.0257488638,-0.0232560523,0.0210546385,0.0047772457,0.0157491602,-0.0027205918,-0.0185548365,-0.0001479143,0.0094759585,-0.0038375710,0.0235426538,0.0005242523,-0.0064975838,0.0239536855,0.0257730093,-0.0145640764,0.0162382834,0.0132498825,0.0044245240,-0.0095406147,-0.0299141686,-0.0198444724,0.0030432811,-0.0304386746,0.0181833655,-0.0056271763,0.0249954127,-0.0264665224,0.0133034475,0.0025692454,-0.0168703962,-0.0258155018,0.0236270800,-0.0270623919,-0.0185823981,0.0226483140,0.0000730326,-0.0062283007,0.0057528079,-0.0260496400,0.0283570122,0.0047524623,0.0074788551,0.0134889474,0.0201298017,0.0078155659,0.0015690228,-0.0310682431,-0.0040740841,0.0074562724,0.0297502410,-0.0077795577,-0.0194924120,-0.0049521462,0.0090024350,0.0259661730,-0.0065012421,-0.0028147961,-0.0202104747,0.0290929787,0.0260028001,0.0260720756,-0.0198181011,0.0183872432,0.0157287717,0.0190508366,0.0000507697,0.0194968432,-0.0189805608,0.0067112176,-0.0113715958,0.0142992698,0.0115661044,-0.0034633528,-0.0145459957,0.0284728557,0.0300613530,-0.0081964601,0.0177312177,-0.0238280259,-0.0195374265,0.0008151956,-0.0033117284,-0.0307081807,0.0137711791,0.0224532243,0.0295434929,-0.0075607202,0.0295870379,0.0043587475,0.0063673523,-0.0262571778,-0.0146355228,-0.0188671555,0.0246368814,-0.0148871308,-0.0109414803,-0.0176368095,-0.0032031704,0.0021105271,-0.0064623840,0.0076540727,0.0276268981,0.0005150350,-0.0035464419,-0.0132550644,0.0158477053,0.0296499971,0.0059913262,-0.0149989864,-0.0287811067,-0.0156055298,0.0045052832,-0.0246099588,-0.0150813246,0.0054080104,-0.0098597351,-0.0267885625,-0.0026506023,-0.0140337748,-0.0253325086,0.0080846846,-0.0187339894,-0.0049987403,0.0118108308,-0.0118421325,0.0017977725,-0.0072678286,0.0120108090,0.0254132785,0.0145743806,-0.0141101582,-0.0115724942,-0.0017778815,0.0209074728,-0.0140420096,-0.0260443222,-0.0300286617,-0.0099208616,-0.0034037016,-0.0275958832,0.0190309007,0.0010242941,-0.0125887906,-0.0136109013,-0.0155626321,0.0185668338,-0.0095783770,-0.0048340978,-0.0241317153,-0.0005599286,-0.0157186687,0.0028589184,0.0231964588,0.0260492079,-0.0067972969,-0.0259266514,-0.0052262591,0.0005328030,0.0097906552,0.0243004952,0.0242434982,0.0285062604,-0.0282063559,-0.0265063848,-0.0093933186,-0.0152348224,0.0300206803,-0.0278101470,0.0022515333,0.0216084104,0.0085362121,-0.0260077249,-0.0263209417,0.0255577285,0.0228333231,-0.0207775496,0.0065929536,-0.0018153366,0.0280059632,-0.0152558573,-0.0086109797,-0.0162634999,0.0166517626,0.0118154045,-0.0227434579,0.0006756214,-0.0250507612,-0.0250828732,0.0191430897,0.0151170110,0.0227542240,-0.0295291822,0.0156102562,0.0131608862,0.0271352474,-0.0205006674,0.0043812282,-0.0149105564,-0.0267624855,-0.0061288751,-0.0003659407,-0.0189686399,0.0018431022,0.0164821874,0.0271388851,0.0297997631,-0.0188034754,0.0239693969,-0.0116624730,-0.0120318485,0.0014742643,-0.0082757547,0.0329117924,-0.0197322145,-0.0270420425,0.0276435614,0.0170630608,0.0079706563,0.0049170074,0.0066120690,0.0071409862,-0.0068022818,-0.0285489075,-0.0240883045
